<?xml version="1.0"?>
<opencv_storage>
<!-- Created using Computer Vision System Toolbox(tm) for MATLAB(R) -->
<!-- Version 9.0.0.341360 (R2016a) -->
<!-- Compatible with OpenCV 2.4 -->
<cascade>
  <stageType>BOOST</stageType>
  <featureType>HAAR</featureType>
  <height>30</height>
  <width>28</width>
  <stageParams>
    <boostType>GAB</boostType>
    <minHitRate>9.9500000476837158e-01</minHitRate>
    <maxFalseAlarm>5.0000000000000000e-01</maxFalseAlarm>
    <weightTrimRate>9.4999999999999996e-01</weightTrimRate>
    <maxDepth>1</maxDepth>
    <maxWeakCount>100</maxWeakCount></stageParams>
  <featureParams>
    <maxCatCount>0</maxCatCount>
    <featSize>1</featSize>
    <mode>BASIC</mode></featureParams>
  <stageNum>19</stageNum>
  <stages>
    <!-- stage 0 -->
    <_>
      <maxWeakCount>9</maxWeakCount>
      <stageThreshold>-1.9212549924850464e+00</stageThreshold>
      <weakClassifiers>
        <_>
          <internalNodes>
            0 -1 25 6.5760880708694458e-02</internalNodes>
          <leafValues>
            -7.8240305185317993e-01 4.4164037704467773e-01</leafValues></_>
        <_>
          <internalNodes>
            0 -1 619 -4.2231854051351547e-02</internalNodes>
          <leafValues>
            4.8983103036880493e-01 -5.6988185644149780e-01</leafValues></_>
        <_>
          <internalNodes>
            0 -1 151 4.9858711659908295e-02</internalNodes>
          <leafValues>
            -3.9212259650230408e-01 5.3857970237731934e-01</leafValues></_>
        <_>
          <internalNodes>
            0 -1 65 8.3041945472359657e-03</internalNodes>
          <leafValues>
            -2.0133118331432343e-01 4.7942781448364258e-01</leafValues></_>
        <_>
          <internalNodes>
            0 -1 740 -1.1438373476266861e-03</internalNodes>
          <leafValues>
            3.3203363418579102e-01 -2.7756360173225403e-01</leafValues></_>
        <_>
          <internalNodes>
            0 -1 545 -1.3654583599418402e-03</internalNodes>
          <leafValues>
            3.8070780038833618e-01 -2.1845731139183044e-01</leafValues></_>
        <_>
          <internalNodes>
            0 -1 637 3.8614613004028797e-03</internalNodes>
          <leafValues>
            -2.0188611745834351e-01 4.0808025002479553e-01</leafValues></_>
        <_>
          <internalNodes>
            0 -1 568 -7.5512658804655075e-04</internalNodes>
          <leafValues>
            2.8628167510032654e-01 -2.5752651691436768e-01</leafValues></_>
        <_>
          <internalNodes>
            0 -1 315 4.0951194241642952e-03</internalNodes>
          <leafValues>
            -1.7385733127593994e-01 3.8365784287452698e-01</leafValues></_></weakClassifiers></_>
    <!-- stage 1 -->
    <_>
      <maxWeakCount>15</maxWeakCount>
      <stageThreshold>-1.8240405321121216e+00</stageThreshold>
      <weakClassifiers>
        <_>
          <internalNodes>
            0 -1 14 1.0532237589359283e-01</internalNodes>
          <leafValues>
            -7.5637686252593994e-01 9.5525994896888733e-02</leafValues></_>
        <_>
          <internalNodes>
            0 -1 58 3.5704553127288818e-02</internalNodes>
          <leafValues>
            -5.0622272491455078e-01 3.8095155358314514e-01</leafValues></_>
        <_>
          <internalNodes>
            0 -1 701 -1.1535421945154667e-02</internalNodes>
          <leafValues>
            4.6259015798568726e-01 -3.2693251967430115e-01</leafValues></_>
        <_>
          <internalNodes>
            0 -1 263 3.0259592458605766e-03</internalNodes>
          <leafValues>
            -2.7377349138259888e-01 3.9599946141242981e-01</leafValues></_>
        <_>
          <internalNodes>
            0 -1 166 4.0814764797687531e-03</internalNodes>
          <leafValues>
            -2.7378723025321960e-01 3.2313469052314758e-01</leafValues></_>
        <_>
          <internalNodes>
            0 -1 141 1.3052511215209961e-01</internalNodes>
          <leafValues>
            -1.0982849448919296e-01 5.1437515020370483e-01</leafValues></_>
        <_>
          <internalNodes>
            0 -1 224 2.8297482058405876e-03</internalNodes>
          <leafValues>
            -1.9777217507362366e-01 3.1543335318565369e-01</leafValues></_>
        <_>
          <internalNodes>
            0 -1 452 2.2012023255228996e-03</internalNodes>
          <leafValues>
            -1.5957485139369965e-01 3.6068993806838989e-01</leafValues></_>
        <_>
          <internalNodes>
            0 -1 536 5.0195496529340744e-02</internalNodes>
          <leafValues>
            8.9625567197799683e-02 -7.1822381019592285e-01</leafValues></_>
        <_>
          <internalNodes>
            0 -1 472 3.2089382410049438e-02</internalNodes>
          <leafValues>
            -1.8334320187568665e-01 3.3486270904541016e-01</leafValues></_>
        <_>
          <internalNodes>
            0 -1 361 5.6812167167663574e-03</internalNodes>
          <leafValues>
            7.5597286224365234e-02 -6.2771904468536377e-01</leafValues></_>
        <_>
          <internalNodes>
            0 -1 665 5.2285422571003437e-03</internalNodes>
          <leafValues>
            -1.5546998381614685e-01 3.2149907946586609e-01</leafValues></_>
        <_>
          <internalNodes>
            0 -1 384 2.9135546647012234e-03</internalNodes>
          <leafValues>
            7.2574198246002197e-02 -7.4170225858688354e-01</leafValues></_>
        <_>
          <internalNodes>
            0 -1 336 2.6463926769793034e-03</internalNodes>
          <leafValues>
            9.2033348977565765e-02 -4.4763514399528503e-01</leafValues></_>
        <_>
          <internalNodes>
            0 -1 46 3.6328120040707290e-04</internalNodes>
          <leafValues>
            -1.7794367671012878e-01 2.7600505948066711e-01</leafValues></_></weakClassifiers></_>
    <!-- stage 2 -->
    <_>
      <maxWeakCount>22</maxWeakCount>
      <stageThreshold>-1.5748039484024048e+00</stageThreshold>
      <weakClassifiers>
        <_>
          <internalNodes>
            0 -1 8 1.0288158059120178e-01</internalNodes>
          <leafValues>
            -7.5920152664184570e-01 -1.3711790740489960e-01</leafValues></_>
        <_>
          <internalNodes>
            0 -1 198 3.9930108934640884e-02</internalNodes>
          <leafValues>
            -4.2341864109039307e-01 3.2982766628265381e-01</leafValues></_>
        <_>
          <internalNodes>
            0 -1 593 -1.5234224498271942e-02</internalNodes>
          <leafValues>
            4.0169340372085571e-01 -3.4268838167190552e-01</leafValues></_>
        <_>
          <internalNodes>
            0 -1 73 5.8148130774497986e-03</internalNodes>
          <leafValues>
            -2.5191318988800049e-01 3.0266776680946350e-01</leafValues></_>
        <_>
          <internalNodes>
            0 -1 152 2.1189133822917938e-01</internalNodes>
          <leafValues>
            -2.1482911705970764e-01 2.7601000666618347e-01</leafValues></_>
        <_>
          <internalNodes>
            0 -1 196 -7.7696740627288818e-03</internalNodes>
          <leafValues>
            3.1636783480644226e-01 -1.6562537848949432e-01</leafValues></_>
        <_>
          <internalNodes>
            0 -1 732 -5.5352393537759781e-03</internalNodes>
          <leafValues>
            3.4581065177917480e-01 -1.6438259184360504e-01</leafValues></_>
        <_>
          <internalNodes>
            0 -1 542 -2.6975614018738270e-03</internalNodes>
          <leafValues>
            -5.4609125852584839e-01 8.7644591927528381e-02</leafValues></_>
        <_>
          <internalNodes>
            0 -1 113 1.5143012627959251e-02</internalNodes>
          <leafValues>
            -1.3596315681934357e-01 3.1095618009567261e-01</leafValues></_>
        <_>
          <internalNodes>
            0 -1 286 9.3504483811557293e-04</internalNodes>
          <leafValues>
            -1.4158886671066284e-01 2.8913342952728271e-01</leafValues></_>
        <_>
          <internalNodes>
            0 -1 127 -1.2742075137794018e-02</internalNodes>
          <leafValues>
            2.2729517519474030e-01 -1.9280849397182465e-01</leafValues></_>
        <_>
          <internalNodes>
            0 -1 76 -9.4309244304895401e-03</internalNodes>
          <leafValues>
            6.0708063840866089e-01 -6.7889712750911713e-02</leafValues></_>
        <_>
          <internalNodes>
            0 -1 360 2.3156613111495972e-02</internalNodes>
          <leafValues>
            1.3969008624553680e-01 -3.3689430356025696e-01</leafValues></_>
        <_>
          <internalNodes>
            0 -1 450 -6.4782975241541862e-03</internalNodes>
          <leafValues>
            5.1825362443923950e-01 -8.1664010882377625e-02</leafValues></_>
        <_>
          <internalNodes>
            0 -1 592 -2.3891404271125793e-03</internalNodes>
          <leafValues>
            -4.5935699343681335e-01 8.1779085099697113e-02</leafValues></_>
        <_>
          <internalNodes>
            0 -1 31 -1.2020897120237350e-02</internalNodes>
          <leafValues>
            3.6441639065742493e-01 -9.9225126206874847e-02</leafValues></_>
        <_>
          <internalNodes>
            0 -1 382 2.7189529500901699e-03</internalNodes>
          <leafValues>
            6.4158186316490173e-02 -6.0313409566879272e-01</leafValues></_>
        <_>
          <internalNodes>
            0 -1 110 -9.6480242908000946e-02</internalNodes>
          <leafValues>
            -8.4274584054946899e-01 3.1010670587420464e-02</leafValues></_>
        <_>
          <internalNodes>
            0 -1 276 -1.7539169639348984e-02</internalNodes>
          <leafValues>
            -5.7418644428253174e-01 4.4017303735017776e-02</leafValues></_>
        <_>
          <internalNodes>
            0 -1 484 1.1733011342585087e-03</internalNodes>
          <leafValues>
            -1.1198651790618896e-01 2.9771199822425842e-01</leafValues></_>
        <_>
          <internalNodes>
            0 -1 702 -8.7695391848683357e-03</internalNodes>
          <leafValues>
            2.0780447125434875e-01 -1.5660189092159271e-01</leafValues></_>
        <_>
          <internalNodes>
            0 -1 674 1.4622684568166733e-02</internalNodes>
          <leafValues>
            -6.2333486974239349e-02 5.3508991003036499e-01</leafValues></_></weakClassifiers></_>
    <!-- stage 3 -->
    <_>
      <maxWeakCount>27</maxWeakCount>
      <stageThreshold>-1.5499124526977539e+00</stageThreshold>
      <weakClassifiers>
        <_>
          <internalNodes>
            0 -1 89 8.8460221886634827e-02</internalNodes>
          <leafValues>
            -6.8454933166503906e-01 -1.1085972934961319e-01</leafValues></_>
        <_>
          <internalNodes>
            0 -1 15 1.3278533518314362e-01</internalNodes>
          <leafValues>
            -4.1973224282264709e-01 2.3888681828975677e-01</leafValues></_>
        <_>
          <internalNodes>
            0 -1 657 -2.4799495935440063e-02</internalNodes>
          <leafValues>
            2.4386802315711975e-01 -3.2914689183235168e-01</leafValues></_>
        <_>
          <internalNodes>
            0 -1 6 2.6712611317634583e-02</internalNodes>
          <leafValues>
            -3.4250456094741821e-01 2.5671628117561340e-01</leafValues></_>
        <_>
          <internalNodes>
            0 -1 434 7.1116991341114044e-02</internalNodes>
          <leafValues>
            8.8121317327022552e-02 -5.9600216150283813e-01</leafValues></_>
        <_>
          <internalNodes>
            0 -1 363 3.8757943548262119e-03</internalNodes>
          <leafValues>
            1.2754078209400177e-01 -4.1226583719253540e-01</leafValues></_>
        <_>
          <internalNodes>
            0 -1 305 7.6312962919473648e-03</internalNodes>
          <leafValues>
            5.8236792683601379e-02 -6.2146008014678955e-01</leafValues></_>
        <_>
          <internalNodes>
            0 -1 178 3.6328148562461138e-03</internalNodes>
          <leafValues>
            7.8392095863819122e-02 -5.3771281242370605e-01</leafValues></_>
        <_>
          <internalNodes>
            0 -1 742 -9.5969531685113907e-03</internalNodes>
          <leafValues>
            2.8097113966941833e-01 -1.5017786622047424e-01</leafValues></_>
        <_>
          <internalNodes>
            0 -1 338 3.2579298131167889e-03</internalNodes>
          <leafValues>
            7.1602024137973785e-02 -4.5720803737640381e-01</leafValues></_>
        <_>
          <internalNodes>
            0 -1 708 1.0050851851701736e-02</internalNodes>
          <leafValues>
            -1.0262240469455719e-01 3.5083118081092834e-01</leafValues></_>
        <_>
          <internalNodes>
            0 -1 228 -3.1580461654812098e-03</internalNodes>
          <leafValues>
            3.0792626738548279e-01 -1.2683871388435364e-01</leafValues></_>
        <_>
          <internalNodes>
            0 -1 409 4.4630537740886211e-03</internalNodes>
          <leafValues>
            6.2764108180999756e-02 -6.4853197336196899e-01</leafValues></_>
        <_>
          <internalNodes>
            0 -1 660 1.1349312961101532e-02</internalNodes>
          <leafValues>
            -1.6362148523330688e-01 2.2824180126190186e-01</leafValues></_>
        <_>
          <internalNodes>
            0 -1 514 -3.8163536228239536e-03</internalNodes>
          <leafValues>
            -5.9146243333816528e-01 5.5228397250175476e-02</leafValues></_>
        <_>
          <internalNodes>
            0 -1 57 3.1419210135936737e-02</internalNodes>
          <leafValues>
            -8.6986847221851349e-02 4.4477528333663940e-01</leafValues></_>
        <_>
          <internalNodes>
            0 -1 561 7.8690925147384405e-04</internalNodes>
          <leafValues>
            8.2013726234436035e-02 -4.7150847315788269e-01</leafValues></_>
        <_>
          <internalNodes>
            0 -1 226 3.2499302178621292e-03</internalNodes>
          <leafValues>
            -1.7319101095199585e-01 2.1480636298656464e-01</leafValues></_>
        <_>
          <internalNodes>
            0 -1 406 -7.1650939062237740e-03</internalNodes>
          <leafValues>
            4.9618911743164063e-01 -7.2613149881362915e-02</leafValues></_>
        <_>
          <internalNodes>
            0 -1 190 2.0542561833281070e-04</internalNodes>
          <leafValues>
            1.2902361154556274e-01 -2.6007187366485596e-01</leafValues></_>
        <_>
          <internalNodes>
            0 -1 99 4.4504575431346893e-02</internalNodes>
          <leafValues>
            -2.2445511817932129e-01 1.5354928374290466e-01</leafValues></_>
        <_>
          <internalNodes>
            0 -1 573 5.4163886234164238e-03</internalNodes>
          <leafValues>
            -1.0450505465269089e-01 3.4914335608482361e-01</leafValues></_>
        <_>
          <internalNodes>
            0 -1 574 2.0137842744588852e-02</internalNodes>
          <leafValues>
            -6.9741107523441315e-02 5.0141745805740356e-01</leafValues></_>
        <_>
          <internalNodes>
            0 -1 720 4.5086396858096123e-03</internalNodes>
          <leafValues>
            -1.1051055788993835e-01 2.7943548560142517e-01</leafValues></_>
        <_>
          <internalNodes>
            0 -1 474 2.0709796808660030e-03</internalNodes>
          <leafValues>
            -1.8767155706882477e-01 1.6914020478725433e-01</leafValues></_>
        <_>
          <internalNodes>
            0 -1 342 -5.6767575442790985e-03</internalNodes>
          <leafValues>
            3.5332784056663513e-01 -9.5983244478702545e-02</leafValues></_>
        <_>
          <internalNodes>
            0 -1 493 1.1298458557575941e-03</internalNodes>
          <leafValues>
            5.6552626192569733e-02 -6.4501374959945679e-01</leafValues></_></weakClassifiers></_>
    <!-- stage 4 -->
    <_>
      <maxWeakCount>39</maxWeakCount>
      <stageThreshold>-1.5201001167297363e+00</stageThreshold>
      <weakClassifiers>
        <_>
          <internalNodes>
            0 -1 58 4.6118311583995819e-02</internalNodes>
          <leafValues>
            -6.9221484661102295e-01 -2.0806600153446198e-01</leafValues></_>
        <_>
          <internalNodes>
            0 -1 103 3.1414558179676533e-03</internalNodes>
          <leafValues>
            -4.0321084856987000e-01 1.9638758897781372e-01</leafValues></_>
        <_>
          <internalNodes>
            0 -1 570 -8.7733134627342224e-02</internalNodes>
          <leafValues>
            2.6565739512443542e-01 -2.6995992660522461e-01</leafValues></_>
        <_>
          <internalNodes>
            0 -1 37 1.5209207776933908e-03</internalNodes>
          <leafValues>
            -2.3670966923236847e-01 1.6900317370891571e-01</leafValues></_>
        <_>
          <internalNodes>
            0 -1 140 2.3738942109048367e-03</internalNodes>
          <leafValues>
            1.3045960664749146e-01 -3.2411634922027588e-01</leafValues></_>
        <_>
          <internalNodes>
            0 -1 20 5.2911803126335144e-02</internalNodes>
          <leafValues>
            -1.2919497489929199e-01 2.6695731282234192e-01</leafValues></_>
        <_>
          <internalNodes>
            0 -1 620 -1.9782107323408127e-02</internalNodes>
          <leafValues>
            2.2435338795185089e-01 -1.5331934392452240e-01</leafValues></_>
        <_>
          <internalNodes>
            0 -1 546 -6.6208298085257411e-04</internalNodes>
          <leafValues>
            1.8738818168640137e-01 -1.9445730745792389e-01</leafValues></_>
        <_>
          <internalNodes>
            0 -1 16 8.1262772437185049e-04</internalNodes>
          <leafValues>
            6.1139553785324097e-02 -5.1773679256439209e-01</leafValues></_>
        <_>
          <internalNodes>
            0 -1 84 2.7893289923667908e-02</internalNodes>
          <leafValues>
            -1.4226150512695313e-01 2.1771164238452911e-01</leafValues></_>
        <_>
          <internalNodes>
            0 -1 476 9.7443237900733948e-03</internalNodes>
          <leafValues>
            -1.1170773208141327e-01 2.9596772789955139e-01</leafValues></_>
        <_>
          <internalNodes>
            0 -1 229 3.2099881209433079e-03</internalNodes>
          <leafValues>
            -1.7071630060672760e-01 1.9341498613357544e-01</leafValues></_>
        <_>
          <internalNodes>
            0 -1 627 -5.0845816731452942e-03</internalNodes>
          <leafValues>
            -9.4931530952453613e-01 3.4244351089000702e-02</leafValues></_>
        <_>
          <internalNodes>
            0 -1 114 5.0432477146387100e-03</internalNodes>
          <leafValues>
            -1.4749115705490112e-01 2.1559916436672211e-01</leafValues></_>
        <_>
          <internalNodes>
            0 -1 383 -1.2178570032119751e-02</internalNodes>
          <leafValues>
            -9.1729193925857544e-01 3.5312887281179428e-02</leafValues></_>
        <_>
          <internalNodes>
            0 -1 155 -1.5441608615219593e-02</internalNodes>
          <leafValues>
            -6.9362890720367432e-01 3.2334677875041962e-02</leafValues></_>
        <_>
          <internalNodes>
            0 -1 70 1.0021601803600788e-02</internalNodes>
          <leafValues>
            3.6429546773433685e-02 -6.7942154407501221e-01</leafValues></_>
        <_>
          <internalNodes>
            0 -1 200 3.3552076667547226e-02</internalNodes>
          <leafValues>
            -9.1812521219253540e-02 3.7147766351699829e-01</leafValues></_>
        <_>
          <internalNodes>
            0 -1 534 -4.3169129639863968e-03</internalNodes>
          <leafValues>
            2.8821712732315063e-01 -1.0185465216636658e-01</leafValues></_>
        <_>
          <internalNodes>
            0 -1 539 9.7363768145442009e-04</internalNodes>
          <leafValues>
            3.0851818621158600e-02 -9.2317748069763184e-01</leafValues></_>
        <_>
          <internalNodes>
            0 -1 614 2.7328382711857557e-03</internalNodes>
          <leafValues>
            -8.6761049926280975e-02 3.7694308161735535e-01</leafValues></_>
        <_>
          <internalNodes>
            0 -1 251 -1.0038029402494431e-02</internalNodes>
          <leafValues>
            -7.9271847009658813e-01 3.6613281816244125e-02</leafValues></_>
        <_>
          <internalNodes>
            0 -1 181 1.4298674650490284e-03</internalNodes>
          <leafValues>
            9.4961076974868774e-02 -2.9453033208847046e-01</leafValues></_>
        <_>
          <internalNodes>
            0 -1 746 1.0130090638995171e-02</internalNodes>
          <leafValues>
            -8.1522278487682343e-02 3.6450660228729248e-01</leafValues></_>
        <_>
          <internalNodes>
            0 -1 109 3.4955739974975586e-01</internalNodes>
          <leafValues>
            -1.1802469938993454e-01 2.4954590201377869e-01</leafValues></_>
        <_>
          <internalNodes>
            0 -1 499 1.4657882973551750e-02</internalNodes>
          <leafValues>
            -9.1147296130657196e-02 3.4852081537246704e-01</leafValues></_>
        <_>
          <internalNodes>
            0 -1 632 1.4391650445759296e-02</internalNodes>
          <leafValues>
            -4.6775538474321365e-02 6.6319978237152100e-01</leafValues></_>
        <_>
          <internalNodes>
            0 -1 148 2.0418316125869751e-02</internalNodes>
          <leafValues>
            3.4810032695531845e-02 -8.9783358573913574e-01</leafValues></_>
        <_>
          <internalNodes>
            0 -1 358 -3.5788961686193943e-03</internalNodes>
          <leafValues>
            -6.6531717777252197e-01 3.0262153595685959e-02</leafValues></_>
        <_>
          <internalNodes>
            0 -1 96 -2.0165149122476578e-02</internalNodes>
          <leafValues>
            -8.3601933717727661e-01 2.6676785200834274e-02</leafValues></_>
        <_>
          <internalNodes>
            0 -1 17 -1.8031742423772812e-02</internalNodes>
          <leafValues>
            4.4084525108337402e-01 -7.3119081556797028e-02</leafValues></_>
        <_>
          <internalNodes>
            0 -1 164 4.6744048595428467e-03</internalNodes>
          <leafValues>
            -1.3749936223030090e-01 2.1799799799919128e-01</leafValues></_>
        <_>
          <internalNodes>
            0 -1 403 -3.7305720616132021e-04</internalNodes>
          <leafValues>
            2.3073673248291016e-01 -1.2798747420310974e-01</leafValues></_>
        <_>
          <internalNodes>
            0 -1 609 -2.2197478392627090e-04</internalNodes>
          <leafValues>
            1.7999137938022614e-01 -1.4316628873348236e-01</leafValues></_>
        <_>
          <internalNodes>
            0 -1 636 4.9925921484827995e-03</internalNodes>
          <leafValues>
            -8.1093937158584595e-02 3.6392381787300110e-01</leafValues></_>
        <_>
          <internalNodes>
            0 -1 655 7.0042954757809639e-03</internalNodes>
          <leafValues>
            6.4827837049961090e-02 -4.7205388545989990e-01</leafValues></_>
        <_>
          <internalNodes>
            0 -1 42 4.3458670377731323e-02</internalNodes>
          <leafValues>
            -1.0820516198873520e-01 2.6499092578887939e-01</leafValues></_>
        <_>
          <internalNodes>
            0 -1 718 -9.3336671125143766e-04</internalNodes>
          <leafValues>
            1.3117910921573639e-01 -2.2097155451774597e-01</leafValues></_>
        <_>
          <internalNodes>
            0 -1 554 5.1390603184700012e-03</internalNodes>
          <leafValues>
            5.9632223099470139e-02 -5.1508069038391113e-01</leafValues></_></weakClassifiers></_>
    <!-- stage 5 -->
    <_>
      <maxWeakCount>48</maxWeakCount>
      <stageThreshold>-1.4502760171890259e+00</stageThreshold>
      <weakClassifiers>
        <_>
          <internalNodes>
            0 -1 223 7.2540581226348877e-02</internalNodes>
          <leafValues>
            -7.1905177831649780e-01 -3.4493473172187805e-01</leafValues></_>
        <_>
          <internalNodes>
            0 -1 428 -2.2502811625599861e-02</internalNodes>
          <leafValues>
            1.6631636023521423e-01 -2.9404687881469727e-01</leafValues></_>
        <_>
          <internalNodes>
            0 -1 36 7.1619838476181030e-02</internalNodes>
          <leafValues>
            -2.2306901216506958e-01 2.0842394232749939e-01</leafValues></_>
        <_>
          <internalNodes>
            0 -1 12 1.4795834198594093e-02</internalNodes>
          <leafValues>
            -1.6008648276329041e-01 2.1850633621215820e-01</leafValues></_>
        <_>
          <internalNodes>
            0 -1 729 -3.8818316534161568e-03</internalNodes>
          <leafValues>
            2.0093648135662079e-01 -1.7436432838439941e-01</leafValues></_>
        <_>
          <internalNodes>
            0 -1 132 -4.5646075159311295e-03</internalNodes>
          <leafValues>
            1.4223262667655945e-01 -2.1024689078330994e-01</leafValues></_>
        <_>
          <internalNodes>
            0 -1 602 -1.7252856865525246e-02</internalNodes>
          <leafValues>
            6.4980125427246094e-01 -3.2967112958431244e-02</leafValues></_>
        <_>
          <internalNodes>
            0 -1 27 1.1191884055733681e-02</internalNodes>
          <leafValues>
            -7.6227195560932159e-02 3.4174033999443054e-01</leafValues></_>
        <_>
          <internalNodes>
            0 -1 77 -1.0770635679364204e-02</internalNodes>
          <leafValues>
            6.3046854734420776e-01 -3.8969013839960098e-02</leafValues></_>
        <_>
          <internalNodes>
            0 -1 274 3.6158428993076086e-03</internalNodes>
          <leafValues>
            6.5002247691154480e-02 -4.6022659540176392e-01</leafValues></_>
        <_>
          <internalNodes>
            0 -1 348 -1.0201812256127596e-03</internalNodes>
          <leafValues>
            1.5449675917625427e-01 -1.5620404481887817e-01</leafValues></_>
        <_>
          <internalNodes>
            0 -1 569 -4.4003073126077652e-03</internalNodes>
          <leafValues>
            -8.5193544626235962e-01 3.3458307385444641e-02</leafValues></_>
        <_>
          <internalNodes>
            0 -1 122 7.7840188168920577e-05</internalNodes>
          <leafValues>
            -2.5214919447898865e-01 8.3716996014118195e-02</leafValues></_>
        <_>
          <internalNodes>
            0 -1 577 8.2141337916254997e-03</internalNodes>
          <leafValues>
            -6.4085364341735840e-02 3.7146562337875366e-01</leafValues></_>
        <_>
          <internalNodes>
            0 -1 388 8.4031105507165194e-04</internalNodes>
          <leafValues>
            4.8930034041404724e-02 -4.8544868826866150e-01</leafValues></_>
        <_>
          <internalNodes>
            0 -1 357 1.3608413282781839e-03</internalNodes>
          <leafValues>
            -8.4101356565952301e-02 2.9799300432205200e-01</leafValues></_>
        <_>
          <internalNodes>
            0 -1 682 1.1403298377990723e-01</internalNodes>
          <leafValues>
            -8.6432099342346191e-02 2.7226668596267700e-01</leafValues></_>
        <_>
          <internalNodes>
            0 -1 367 3.9640955626964569e-02</internalNodes>
          <leafValues>
            -3.1011454761028290e-02 6.7774534225463867e-01</leafValues></_>
        <_>
          <internalNodes>
            0 -1 642 3.1531318090856075e-03</internalNodes>
          <leafValues>
            -1.0537138581275940e-01 1.9836339354515076e-01</leafValues></_>
        <_>
          <internalNodes>
            0 -1 51 2.2607820574194193e-04</internalNodes>
          <leafValues>
            -9.4260387122631073e-02 2.3728491365909576e-01</leafValues></_>
        <_>
          <internalNodes>
            0 -1 560 -7.1271578781306744e-04</internalNodes>
          <leafValues>
            -4.0593615174293518e-01 5.8501236140727997e-02</leafValues></_>
        <_>
          <internalNodes>
            0 -1 658 7.3379566892981529e-03</internalNodes>
          <leafValues>
            3.7080377340316772e-02 -5.5381625890731812e-01</leafValues></_>
        <_>
          <internalNodes>
            0 -1 207 -3.7943303585052490e-02</internalNodes>
          <leafValues>
            -5.0786429643630981e-01 3.9991978555917740e-02</leafValues></_>
        <_>
          <internalNodes>
            0 -1 262 -9.6277659758925438e-03</internalNodes>
          <leafValues>
            3.6443179845809937e-01 -6.5879009664058685e-02</leafValues></_>
        <_>
          <internalNodes>
            0 -1 290 1.4132071286439896e-02</internalNodes>
          <leafValues>
            -5.0065129995346069e-02 5.0156503915786743e-01</leafValues></_>
        <_>
          <internalNodes>
            0 -1 288 2.6039415970444679e-03</internalNodes>
          <leafValues>
            -1.7505320906639099e-01 1.5327677130699158e-01</leafValues></_>
        <_>
          <internalNodes>
            0 -1 371 5.2285574376583099e-02</internalNodes>
          <leafValues>
            4.2073268443346024e-02 -5.7327181100845337e-01</leafValues></_>
        <_>
          <internalNodes>
            0 -1 318 1.0285649914294481e-03</internalNodes>
          <leafValues>
            -1.0886698216199875e-01 2.2504888474941254e-01</leafValues></_>
        <_>
          <internalNodes>
            0 -1 26 -2.5671079754829407e-02</internalNodes>
          <leafValues>
            5.2464699745178223e-01 -4.3974135071039200e-02</leafValues></_>
        <_>
          <internalNodes>
            0 -1 72 -9.6866600215435028e-03</internalNodes>
          <leafValues>
            3.8821384310722351e-01 -5.4961610585451126e-02</leafValues></_>
        <_>
          <internalNodes>
            0 -1 640 -2.7170680463314056e-02</internalNodes>
          <leafValues>
            2.4467018246650696e-01 -1.1022318154573441e-01</leafValues></_>
        <_>
          <internalNodes>
            0 -1 610 1.8060860456898808e-03</internalNodes>
          <leafValues>
            -9.1841436922550201e-02 2.6302206516265869e-01</leafValues></_>
        <_>
          <internalNodes>
            0 -1 466 1.5087639912962914e-03</internalNodes>
          <leafValues>
            7.2426274418830872e-02 -3.2102021574974060e-01</leafValues></_>
        <_>
          <internalNodes>
            0 -1 4 4.5798793435096741e-02</internalNodes>
          <leafValues>
            -4.9742501229047775e-02 4.5512685179710388e-01</leafValues></_>
        <_>
          <internalNodes>
            0 -1 243 6.9945017457939684e-06</internalNodes>
          <leafValues>
            -1.4559294283390045e-01 1.4213927090167999e-01</leafValues></_>
        <_>
          <internalNodes>
            0 -1 335 7.3809875175356865e-03</internalNodes>
          <leafValues>
            3.2727397978305817e-02 -6.5419578552246094e-01</leafValues></_>
        <_>
          <internalNodes>
            0 -1 250 -2.2621434181928635e-03</internalNodes>
          <leafValues>
            2.9483109712600708e-01 -7.7737316489219666e-02</leafValues></_>
        <_>
          <internalNodes>
            0 -1 390 1.0551002342253923e-03</internalNodes>
          <leafValues>
            7.5736433267593384e-02 -2.9452994465827942e-01</leafValues></_>
        <_>
          <internalNodes>
            0 -1 393 2.8635170310735703e-02</internalNodes>
          <leafValues>
            -5.5239692330360413e-02 4.4362440705299377e-01</leafValues></_>
        <_>
          <internalNodes>
            0 -1 404 -3.6508440971374512e-03</internalNodes>
          <leafValues>
            2.5476771593093872e-01 -9.7858563065528870e-02</leafValues></_>
        <_>
          <internalNodes>
            0 -1 163 9.7477510571479797e-03</internalNodes>
          <leafValues>
            2.9541360214352608e-02 -7.1005612611770630e-01</leafValues></_>
        <_>
          <internalNodes>
            0 -1 86 -6.0118786059319973e-03</internalNodes>
          <leafValues>
            2.6196011900901794e-01 -8.9573532342910767e-02</leafValues></_>
        <_>
          <internalNodes>
            0 -1 385 -2.5129639543592930e-03</internalNodes>
          <leafValues>
            -5.0779885053634644e-01 4.4318590313196182e-02</leafValues></_>
        <_>
          <internalNodes>
            0 -1 301 -2.3996890522539616e-03</internalNodes>
          <leafValues>
            -3.9280354976654053e-01 4.9358919262886047e-02</leafValues></_>
        <_>
          <internalNodes>
            0 -1 299 6.8453326821327209e-03</internalNodes>
          <leafValues>
            1.0423035174608231e-01 -2.1701323986053467e-01</leafValues></_>
        <_>
          <internalNodes>
            0 -1 323 2.2358851507306099e-02</internalNodes>
          <leafValues>
            -3.6164082586765289e-02 7.0529389381408691e-01</leafValues></_>
        <_>
          <internalNodes>
            0 -1 79 -4.4722607708536088e-04</internalNodes>
          <leafValues>
            1.1990767717361450e-01 -1.9010297954082489e-01</leafValues></_>
        <_>
          <internalNodes>
            0 -1 191 -4.6152085997164249e-03</internalNodes>
          <leafValues>
            -4.0147811174392700e-01 6.2011007219552994e-02</leafValues></_></weakClassifiers></_>
    <!-- stage 6 -->
    <_>
      <maxWeakCount>48</maxWeakCount>
      <stageThreshold>-1.2996789216995239e+00</stageThreshold>
      <weakClassifiers>
        <_>
          <internalNodes>
            0 -1 672 -1.8821319565176964e-02</internalNodes>
          <leafValues>
            -3.5047361254692078e-01 -6.7401576042175293e-01</leafValues></_>
        <_>
          <internalNodes>
            0 -1 175 3.3812560141086578e-03</internalNodes>
          <leafValues>
            -2.6707708835601807e-01 1.5635512769222260e-01</leafValues></_>
        <_>
          <internalNodes>
            0 -1 100 1.6454985365271568e-02</internalNodes>
          <leafValues>
            -2.4283185601234436e-01 1.8220536410808563e-01</leafValues></_>
        <_>
          <internalNodes>
            0 -1 576 -8.1053804606199265e-03</internalNodes>
          <leafValues>
            3.9784863591194153e-01 -4.2230121791362762e-02</leafValues></_>
        <_>
          <internalNodes>
            0 -1 120 4.7500487416982651e-02</internalNodes>
          <leafValues>
            -8.9960701763629913e-02 3.1849038600921631e-01</leafValues></_>
        <_>
          <internalNodes>
            0 -1 582 -2.1672700531780720e-03</internalNodes>
          <leafValues>
            -5.5217516422271729e-01 4.6367220580577850e-02</leafValues></_>
        <_>
          <internalNodes>
            0 -1 648 -6.5331440418958664e-03</internalNodes>
          <leafValues>
            1.3273215293884277e-01 -2.1522927284240723e-01</leafValues></_>
        <_>
          <internalNodes>
            0 -1 608 -4.4677788391709328e-03</internalNodes>
          <leafValues>
            2.0344628393650055e-01 -1.4440840482711792e-01</leafValues></_>
        <_>
          <internalNodes>
            0 -1 599 1.7490671016275883e-03</internalNodes>
          <leafValues>
            -6.9856159389019012e-02 3.2651817798614502e-01</leafValues></_>
        <_>
          <internalNodes>
            0 -1 172 3.5834675654768944e-03</internalNodes>
          <leafValues>
            -1.1797691881656647e-01 2.2299413383007050e-01</leafValues></_>
        <_>
          <internalNodes>
            0 -1 182 -6.7543601617217064e-03</internalNodes>
          <leafValues>
            -4.7642967104911804e-01 4.8832055181264877e-02</leafValues></_>
        <_>
          <internalNodes>
            0 -1 307 2.3955863434821367e-03</internalNodes>
          <leafValues>
            8.2226045429706573e-02 -3.0683878064155579e-01</leafValues></_>
        <_>
          <internalNodes>
            0 -1 101 -4.1557019576430321e-03</internalNodes>
          <leafValues>
            2.1052603423595428e-01 -1.0667049139738083e-01</leafValues></_>
        <_>
          <internalNodes>
            0 -1 525 -3.3737206831574440e-03</internalNodes>
          <leafValues>
            1.1710672080516815e-01 -2.0312777161598206e-01</leafValues></_>
        <_>
          <internalNodes>
            0 -1 511 5.1137886941432953e-02</internalNodes>
          <leafValues>
            -5.5563926696777344e-02 5.6504911184310913e-01</leafValues></_>
        <_>
          <internalNodes>
            0 -1 309 1.4904378913342953e-03</internalNodes>
          <leafValues>
            8.4526412189006805e-02 -2.6457843184471130e-01</leafValues></_>
        <_>
          <internalNodes>
            0 -1 400 1.1530994670465589e-03</internalNodes>
          <leafValues>
            -7.9905182123184204e-02 2.7543160319328308e-01</leafValues></_>
        <_>
          <internalNodes>
            0 -1 71 2.6567265740595758e-04</internalNodes>
          <leafValues>
            1.1768255382776260e-01 -1.7918816208839417e-01</leafValues></_>
        <_>
          <internalNodes>
            0 -1 457 5.8299330994486809e-03</internalNodes>
          <leafValues>
            -4.6263672411441803e-02 4.6626538038253784e-01</leafValues></_>
        <_>
          <internalNodes>
            0 -1 480 2.4939386639744043e-04</internalNodes>
          <leafValues>
            -1.8796783685684204e-01 1.2366167455911636e-01</leafValues></_>
        <_>
          <internalNodes>
            0 -1 96 -1.1826332658529282e-02</internalNodes>
          <leafValues>
            -4.5572093129158020e-01 4.4694740325212479e-02</leafValues></_>
        <_>
          <internalNodes>
            0 -1 303 4.1447463445365429e-03</internalNodes>
          <leafValues>
            8.1950321793556213e-02 -2.3978666961193085e-01</leafValues></_>
        <_>
          <internalNodes>
            0 -1 487 1.3865346089005470e-02</internalNodes>
          <leafValues>
            6.2143061310052872e-02 -3.4431767463684082e-01</leafValues></_>
        <_>
          <internalNodes>
            0 -1 458 -6.1111846007406712e-03</internalNodes>
          <leafValues>
            3.6536648869514465e-01 -7.2705127298831940e-02</leafValues></_>
        <_>
          <internalNodes>
            0 -1 233 -3.4108310937881470e-03</internalNodes>
          <leafValues>
            -4.1091090440750122e-01 5.2720505744218826e-02</leafValues></_>
        <_>
          <internalNodes>
            0 -1 666 -6.3928607851266861e-03</internalNodes>
          <leafValues>
            2.2412402927875519e-01 -9.3547426164150238e-02</leafValues></_>
        <_>
          <internalNodes>
            0 -1 249 1.5867752954363823e-03</internalNodes>
          <leafValues>
            -1.6514143347740173e-01 1.3733431696891785e-01</leafValues></_>
        <_>
          <internalNodes>
            0 -1 667 1.0313313454389572e-02</internalNodes>
          <leafValues>
            -6.6433914005756378e-02 3.5684573650360107e-01</leafValues></_>
        <_>
          <internalNodes>
            0 -1 225 1.7798434942960739e-02</internalNodes>
          <leafValues>
            -8.9811466634273529e-02 2.6151385903358459e-01</leafValues></_>
        <_>
          <internalNodes>
            0 -1 165 -1.8793935887515545e-03</internalNodes>
          <leafValues>
            2.5178313255310059e-01 -8.8434077799320221e-02</leafValues></_>
        <_>
          <internalNodes>
            0 -1 713 -2.2789617069065571e-03</internalNodes>
          <leafValues>
            -3.6230269074440002e-01 5.5850967764854431e-02</leafValues></_>
        <_>
          <internalNodes>
            0 -1 728 1.1854089796543121e-02</internalNodes>
          <leafValues>
            -1.6357985138893127e-01 1.3807483017444611e-01</leafValues></_>
        <_>
          <internalNodes>
            0 -1 203 -4.9524134956300259e-03</internalNodes>
          <leafValues>
            2.1908895671367645e-01 -9.4029568135738373e-02</leafValues></_>
        <_>
          <internalNodes>
            0 -1 533 -1.5772760380059481e-03</internalNodes>
          <leafValues>
            3.1459465622901917e-01 -7.4375808238983154e-02</leafValues></_>
        <_>
          <internalNodes>
            0 -1 726 -1.3755438849329948e-03</internalNodes>
          <leafValues>
            -4.9952360987663269e-01 4.0035817772150040e-02</leafValues></_>
        <_>
          <internalNodes>
            0 -1 520 3.3550346270203590e-03</internalNodes>
          <leafValues>
            -4.8490252345800400e-02 4.6271023154258728e-01</leafValues></_>
        <_>
          <internalNodes>
            0 -1 486 5.0502568483352661e-03</internalNodes>
          <leafValues>
            4.8711862415075302e-02 -4.6689817309379578e-01</leafValues></_>
        <_>
          <internalNodes>
            0 -1 540 -2.9220160096883774e-02</internalNodes>
          <leafValues>
            9.9433436989784241e-02 -1.8934123218059540e-01</leafValues></_>
        <_>
          <internalNodes>
            0 -1 306 1.1247123777866364e-01</internalNodes>
          <leafValues>
            -3.2374694943428040e-02 7.7215749025344849e-01</leafValues></_>
        <_>
          <internalNodes>
            0 -1 448 3.3089220523834229e-03</internalNodes>
          <leafValues>
            4.9390565603971481e-02 -4.6030968427658081e-01</leafValues></_>
        <_>
          <internalNodes>
            0 -1 184 -1.5300555969588459e-04</internalNodes>
          <leafValues>
            1.5941511094570160e-01 -1.2584419548511505e-01</leafValues></_>
        <_>
          <internalNodes>
            0 -1 449 -3.3372049219906330e-03</internalNodes>
          <leafValues>
            1.7829138040542603e-01 -1.1167366057634354e-01</leafValues></_>
        <_>
          <internalNodes>
            0 -1 194 1.7112537752836943e-03</internalNodes>
          <leafValues>
            3.7210009992122650e-02 -5.7648056745529175e-01</leafValues></_>
        <_>
          <internalNodes>
            0 -1 329 -3.9098888635635376e-02</internalNodes>
          <leafValues>
            -8.3122020959854126e-01 2.0714664831757545e-02</leafValues></_>
        <_>
          <internalNodes>
            0 -1 317 9.0544186532497406e-03</internalNodes>
          <leafValues>
            -7.9256653785705566e-02 2.7907890081405640e-01</leafValues></_>
        <_>
          <internalNodes>
            0 -1 407 6.5224366262555122e-03</internalNodes>
          <leafValues>
            9.7706153988838196e-02 -2.1483996510505676e-01</leafValues></_>
        <_>
          <internalNodes>
            0 -1 481 3.0688466504216194e-03</internalNodes>
          <leafValues>
            -7.3881350457668304e-02 3.3820965886116028e-01</leafValues></_>
        <_>
          <internalNodes>
            0 -1 589 6.6479330416768789e-04</internalNodes>
          <leafValues>
            8.3481431007385254e-02 -2.5698462128639221e-01</leafValues></_></weakClassifiers></_>
    <!-- stage 7 -->
    <_>
      <maxWeakCount>50</maxWeakCount>
      <stageThreshold>-1.2887109518051147e+00</stageThreshold>
      <weakClassifiers>
        <_>
          <internalNodes>
            0 -1 183 9.5945093780755997e-03</internalNodes>
          <leafValues>
            -6.4120054244995117e-01 -3.3853355050086975e-01</leafValues></_>
        <_>
          <internalNodes>
            0 -1 285 2.5828853249549866e-03</internalNodes>
          <leafValues>
            -2.9451254010200500e-01 1.0959390550851822e-01</leafValues></_>
        <_>
          <internalNodes>
            0 -1 60 3.3924335730262101e-04</internalNodes>
          <leafValues>
            -2.3713155090808868e-01 1.2381380796432495e-01</leafValues></_>
        <_>
          <internalNodes>
            0 -1 635 -8.9607946574687958e-03</internalNodes>
          <leafValues>
            2.5001439452171326e-01 -1.0743524134159088e-01</leafValues></_>
        <_>
          <internalNodes>
            0 -1 106 1.5772469341754913e-02</internalNodes>
          <leafValues>
            -1.5028488636016846e-01 1.5766845643520355e-01</leafValues></_>
        <_>
          <internalNodes>
            0 -1 130 -2.4733864702284336e-03</internalNodes>
          <leafValues>
            -8.4969896078109741e-01 2.7411239221692085e-02</leafValues></_>
        <_>
          <internalNodes>
            0 -1 646 -2.2390754893422127e-03</internalNodes>
          <leafValues>
            -5.2276390790939331e-01 2.8841264545917511e-02</leafValues></_>
        <_>
          <internalNodes>
            0 -1 401 9.4393268227577209e-03</internalNodes>
          <leafValues>
            -4.4761043041944504e-02 4.4346743822097778e-01</leafValues></_>
        <_>
          <internalNodes>
            0 -1 633 1.8065076321363449e-02</internalNodes>
          <leafValues>
            -4.8997201025485992e-02 3.5941103100776672e-01</leafValues></_>
        <_>
          <internalNodes>
            0 -1 111 2.9874448664486408e-03</internalNodes>
          <leafValues>
            -6.1290342360734940e-02 3.6458316445350647e-01</leafValues></_>
        <_>
          <internalNodes>
            0 -1 651 1.3585349079221487e-03</internalNodes>
          <leafValues>
            6.8176515400409698e-02 -2.9621684551239014e-01</leafValues></_>
        <_>
          <internalNodes>
            0 -1 734 5.5414563976228237e-03</internalNodes>
          <leafValues>
            -5.2773736417293549e-02 3.7998008728027344e-01</leafValues></_>
        <_>
          <internalNodes>
            0 -1 591 7.5261713936924934e-04</internalNodes>
          <leafValues>
            8.9999504387378693e-02 -2.2215043008327484e-01</leafValues></_>
        <_>
          <internalNodes>
            0 -1 477 -4.3518759310245514e-02</internalNodes>
          <leafValues>
            7.3673981428146362e-01 -2.7950728312134743e-02</leafValues></_>
        <_>
          <internalNodes>
            0 -1 185 8.0951061099767685e-03</internalNodes>
          <leafValues>
            5.7353626936674118e-02 -4.1307720541954041e-01</leafValues></_>
        <_>
          <internalNodes>
            0 -1 87 2.8134947642683983e-02</internalNodes>
          <leafValues>
            -9.8730005323886871e-02 2.1786031126976013e-01</leafValues></_>
        <_>
          <internalNodes>
            0 -1 693 -2.0152032375335693e-03</internalNodes>
          <leafValues>
            1.2394559383392334e-01 -1.7201651632785797e-01</leafValues></_>
        <_>
          <internalNodes>
            0 -1 447 8.7856762111186981e-03</internalNodes>
          <leafValues>
            4.5525833964347839e-02 -4.3081140518188477e-01</leafValues></_>
        <_>
          <internalNodes>
            0 -1 128 -9.3185342848300934e-03</internalNodes>
          <leafValues>
            2.8453949093818665e-01 -7.4642546474933624e-02</leafValues></_>
        <_>
          <internalNodes>
            0 -1 405 8.4188282489776611e-03</internalNodes>
          <leafValues>
            2.6706760749220848e-02 -8.0405646562576294e-01</leafValues></_>
        <_>
          <internalNodes>
            0 -1 349 1.3232633471488953e-02</internalNodes>
          <leafValues>
            -2.9668668285012245e-02 8.5899430513381958e-01</leafValues></_>
        <_>
          <internalNodes>
            0 -1 202 2.1269539371132851e-02</internalNodes>
          <leafValues>
            3.0553616583347321e-02 -7.8358966112136841e-01</leafValues></_>
        <_>
          <internalNodes>
            0 -1 715 -8.4353955462574959e-03</internalNodes>
          <leafValues>
            -4.7557592391967773e-01 3.3696126192808151e-02</leafValues></_>
        <_>
          <internalNodes>
            0 -1 169 -5.7776067405939102e-03</internalNodes>
          <leafValues>
            -3.5995057225227356e-01 5.1160614937543869e-02</leafValues></_>
        <_>
          <internalNodes>
            0 -1 661 8.5614519193768501e-03</internalNodes>
          <leafValues>
            -8.5267134010791779e-02 2.4023255705833435e-01</leafValues></_>
        <_>
          <internalNodes>
            0 -1 18 2.1899861097335815e-01</internalNodes>
          <leafValues>
            1.9524702802300453e-02 -9.4334393739700317e-01</leafValues></_>
        <_>
          <internalNodes>
            0 -1 119 6.4804418943822384e-03</internalNodes>
          <leafValues>
            -1.0365875810384750e-01 2.0562218129634857e-01</leafValues></_>
        <_>
          <internalNodes>
            0 -1 5 -8.5486946627497673e-03</internalNodes>
          <leafValues>
            2.0254088938236237e-01 -1.1034134775400162e-01</leafValues></_>
        <_>
          <internalNodes>
            0 -1 436 3.1892949482426047e-04</internalNodes>
          <leafValues>
            -2.2066062688827515e-01 9.8416462540626526e-02</leafValues></_>
        <_>
          <internalNodes>
            0 -1 231 -8.2783875986933708e-03</internalNodes>
          <leafValues>
            2.6050281524658203e-01 -1.0612095147371292e-01</leafValues></_>
        <_>
          <internalNodes>
            0 -1 691 -7.3742242529988289e-03</internalNodes>
          <leafValues>
            -5.4626578092575073e-01 3.6347642540931702e-02</leafValues></_>
        <_>
          <internalNodes>
            0 -1 695 -4.4344202615320683e-03</internalNodes>
          <leafValues>
            2.0306032896041870e-01 -1.1121129989624023e-01</leafValues></_>
        <_>
          <internalNodes>
            0 -1 283 -7.3427245020866394e-02</internalNodes>
          <leafValues>
            -4.7272244095802307e-01 3.9428133517503738e-02</leafValues></_>
        <_>
          <internalNodes>
            0 -1 506 -4.8172362148761749e-03</internalNodes>
          <leafValues>
            2.6736935973167419e-01 -7.7396847307682037e-02</leafValues></_>
        <_>
          <internalNodes>
            0 -1 411 1.2761190300807357e-03</internalNodes>
          <leafValues>
            2.8673272579908371e-02 -7.5318318605422974e-01</leafValues></_>
        <_>
          <internalNodes>
            0 -1 601 -4.2377570644021034e-03</internalNodes>
          <leafValues>
            -4.5599013566970825e-01 3.4743357449769974e-02</leafValues></_>
        <_>
          <internalNodes>
            0 -1 463 1.8575990572571754e-02</internalNodes>
          <leafValues>
            3.4170676022768021e-02 -5.0112515687942505e-01</leafValues></_>
        <_>
          <internalNodes>
            0 -1 512 -2.7275472879409790e-02</internalNodes>
          <leafValues>
            7.7052479982376099e-01 -2.7480583637952805e-02</leafValues></_>
        <_>
          <internalNodes>
            0 -1 474 2.3428867571055889e-03</internalNodes>
          <leafValues>
            -1.5722733736038208e-01 1.2076412141323090e-01</leafValues></_>
        <_>
          <internalNodes>
            0 -1 500 -4.1875186562538147e-01</internalNodes>
          <leafValues>
            -7.1060413122177124e-01 2.4901885539293289e-02</leafValues></_>
        <_>
          <internalNodes>
            0 -1 543 -7.4027045629918575e-03</internalNodes>
          <leafValues>
            -6.4801132678985596e-01 2.5212174281477928e-02</leafValues></_>
        <_>
          <internalNodes>
            0 -1 482 -2.3649244103580713e-03</internalNodes>
          <leafValues>
            -6.5934675931930542e-01 2.4589516222476959e-02</leafValues></_>
        <_>
          <internalNodes>
            0 -1 133 6.7189898800279479e-06</internalNodes>
          <leafValues>
            -1.7633607983589172e-01 1.0124655067920685e-01</leafValues></_>
        <_>
          <internalNodes>
            0 -1 126 3.0498073901981115e-03</internalNodes>
          <leafValues>
            4.9347352236509323e-02 -3.7084513902664185e-01</leafValues></_>
        <_>
          <internalNodes>
            0 -1 144 3.3015225082635880e-02</internalNodes>
          <leafValues>
            2.9413366690278053e-02 -6.0593318939208984e-01</leafValues></_>
        <_>
          <internalNodes>
            0 -1 143 -1.9382275058887899e-04</internalNodes>
          <leafValues>
            1.1858427524566650e-01 -1.5398478507995605e-01</leafValues></_>
        <_>
          <internalNodes>
            0 -1 47 -1.7791099380701780e-03</internalNodes>
          <leafValues>
            1.8945121765136719e-01 -1.0040289908647537e-01</leafValues></_>
        <_>
          <internalNodes>
            0 -1 1 1.9996298477053642e-02</internalNodes>
          <leafValues>
            -4.3639667332172394e-02 4.6483966708183289e-01</leafValues></_>
        <_>
          <internalNodes>
            0 -1 354 -1.5170598999247886e-05</internalNodes>
          <leafValues>
            1.5228088200092316e-01 -1.3524062931537628e-01</leafValues></_>
        <_>
          <internalNodes>
            0 -1 535 -3.6931629292666912e-03</internalNodes>
          <leafValues>
            1.7849540710449219e-01 -1.0949669033288956e-01</leafValues></_></weakClassifiers></_>
    <!-- stage 8 -->
    <_>
      <maxWeakCount>47</maxWeakCount>
      <stageThreshold>-1.2063673734664917e+00</stageThreshold>
      <weakClassifiers>
        <_>
          <internalNodes>
            0 -1 61 6.1541423201560974e-03</internalNodes>
          <leafValues>
            -6.7253524065017700e-01 -3.7841191887855530e-01</leafValues></_>
        <_>
          <internalNodes>
            0 -1 63 -5.5208031088113785e-02</internalNodes>
          <leafValues>
            7.4106983840465546e-02 -2.9050749540328979e-01</leafValues></_>
        <_>
          <internalNodes>
            0 -1 13 1.1502959579229355e-01</internalNodes>
          <leafValues>
            -2.0986691117286682e-01 1.3233788311481476e-01</leafValues></_>
        <_>
          <internalNodes>
            0 -1 735 -3.2711939420551062e-03</internalNodes>
          <leafValues>
            1.8809883296489716e-01 -1.4710161089897156e-01</leafValues></_>
        <_>
          <internalNodes>
            0 -1 102 -7.9315312206745148e-02</internalNodes>
          <leafValues>
            5.6877779960632324e-01 -2.4459999054670334e-02</leafValues></_>
        <_>
          <internalNodes>
            0 -1 32 3.6329144239425659e-01</internalNodes>
          <leafValues>
            -1.3257630169391632e-01 1.8821291625499725e-01</leafValues></_>
        <_>
          <internalNodes>
            0 -1 571 1.8821882084012032e-02</internalNodes>
          <leafValues>
            -1.2320281565189362e-01 1.7779122292995453e-01</leafValues></_>
        <_>
          <internalNodes>
            0 -1 426 -4.0579661726951599e-03</internalNodes>
          <leafValues>
            -4.0389251708984375e-01 5.4421387612819672e-02</leafValues></_>
        <_>
          <internalNodes>
            0 -1 158 6.7828758619725704e-03</internalNodes>
          <leafValues>
            3.0420890077948570e-02 -5.4808819293975830e-01</leafValues></_>
        <_>
          <internalNodes>
            0 -1 159 3.2360458280891180e-03</internalNodes>
          <leafValues>
            -8.8247947394847870e-02 2.2625198960304260e-01</leafValues></_>
        <_>
          <internalNodes>
            0 -1 706 -2.4018597323447466e-03</internalNodes>
          <leafValues>
            -4.3071186542510986e-01 4.2333245277404785e-02</leafValues></_>
        <_>
          <internalNodes>
            0 -1 192 -6.0023335208825301e-06</internalNodes>
          <leafValues>
            1.1584691703319550e-01 -1.5779760479927063e-01</leafValues></_>
        <_>
          <internalNodes>
            0 -1 23 -1.4308369718492031e-02</internalNodes>
          <leafValues>
            -7.1713459491729736e-01 2.3163305595517159e-02</leafValues></_>
        <_>
          <internalNodes>
            0 -1 549 -5.3431233391165733e-03</internalNodes>
          <leafValues>
            -3.8701424002647400e-01 4.3229892849922180e-02</leafValues></_>
        <_>
          <internalNodes>
            0 -1 521 2.9323012568056583e-03</internalNodes>
          <leafValues>
            -6.2729500234127045e-02 2.9886531829833984e-01</leafValues></_>
        <_>
          <internalNodes>
            0 -1 35 8.6914878338575363e-03</internalNodes>
          <leafValues>
            -9.4926767051219940e-02 1.9620545208454132e-01</leafValues></_>
        <_>
          <internalNodes>
            0 -1 497 -4.6897309948690236e-04</internalNodes>
          <leafValues>
            8.0237954854965210e-02 -2.4560248851776123e-01</leafValues></_>
        <_>
          <internalNodes>
            0 -1 139 -3.0422430485486984e-02</internalNodes>
          <leafValues>
            4.7179004549980164e-01 -4.6288687735795975e-02</leafValues></_>
        <_>
          <internalNodes>
            0 -1 516 1.3300246791914105e-03</internalNodes>
          <leafValues>
            8.3460427820682526e-02 -2.4733218550682068e-01</leafValues></_>
        <_>
          <internalNodes>
            0 -1 529 3.3842533826828003e-02</internalNodes>
          <leafValues>
            -3.6387644708156586e-02 5.7237821817398071e-01</leafValues></_>
        <_>
          <internalNodes>
            0 -1 473 -3.2813048455864191e-03</internalNodes>
          <leafValues>
            -6.1613559722900391e-01 3.6607727408409119e-02</leafValues></_>
        <_>
          <internalNodes>
            0 -1 22 1.6745745961088687e-04</internalNodes>
          <leafValues>
            8.6022809147834778e-02 -2.1802720427513123e-01</leafValues></_>
        <_>
          <internalNodes>
            0 -1 721 4.7117866575717926e-02</internalNodes>
          <leafValues>
            -7.0437476038932800e-02 2.7849313616752625e-01</leafValues></_>
        <_>
          <internalNodes>
            0 -1 310 4.3836919940076768e-04</internalNodes>
          <leafValues>
            -1.7364287376403809e-01 1.0787646472454071e-01</leafValues></_>
        <_>
          <internalNodes>
            0 -1 662 -1.8304517725482583e-03</internalNodes>
          <leafValues>
            1.9502869248390198e-01 -1.0381668061017990e-01</leafValues></_>
        <_>
          <internalNodes>
            0 -1 664 4.7568809241056442e-03</internalNodes>
          <leafValues>
            -9.0562954545021057e-02 2.0694725215435028e-01</leafValues></_>
        <_>
          <internalNodes>
            0 -1 414 -1.2097888393327594e-03</internalNodes>
          <leafValues>
            -4.6856912970542908e-01 4.0108889341354370e-02</leafValues></_>
        <_>
          <internalNodes>
            0 -1 579 1.3811215758323669e-03</internalNodes>
          <leafValues>
            -1.0908162593841553e-01 1.7832329869270325e-01</leafValues></_>
        <_>
          <internalNodes>
            0 -1 641 6.7884052441513631e-06</internalNodes>
          <leafValues>
            -1.5508148074150085e-01 1.3237619400024414e-01</leafValues></_>
        <_>
          <internalNodes>
            0 -1 44 4.0348030626773834e-02</internalNodes>
          <leafValues>
            -2.1196338534355164e-01 9.5698013901710510e-02</leafValues></_>
        <_>
          <internalNodes>
            0 -1 168 1.3537250459194183e-02</internalNodes>
          <leafValues>
            4.2804054915904999e-02 -4.6835225820541382e-01</leafValues></_>
        <_>
          <internalNodes>
            0 -1 355 6.9858562201261520e-03</internalNodes>
          <leafValues>
            -5.7775147259235382e-02 3.5426732897758484e-01</leafValues></_>
        <_>
          <internalNodes>
            0 -1 212 8.0508235841989517e-03</internalNodes>
          <leafValues>
            7.6828315854072571e-02 -2.6587978005409241e-01</leafValues></_>
        <_>
          <internalNodes>
            0 -1 98 -2.0507317036390305e-02</internalNodes>
          <leafValues>
            3.1544575095176697e-01 -6.9885954260826111e-02</leafValues></_>
        <_>
          <internalNodes>
            0 -1 115 9.5751527696847916e-03</internalNodes>
          <leafValues>
            -1.3132506608963013e-01 1.4735369384288788e-01</leafValues></_>
        <_>
          <internalNodes>
            0 -1 555 4.4094533659517765e-03</internalNodes>
          <leafValues>
            2.3747647181153297e-02 -7.9333364963531494e-01</leafValues></_>
        <_>
          <internalNodes>
            0 -1 352 7.0740627124905586e-03</internalNodes>
          <leafValues>
            -6.6461026668548584e-02 3.2907351851463318e-01</leafValues></_>
        <_>
          <internalNodes>
            0 -1 247 -2.7056429535150528e-03</internalNodes>
          <leafValues>
            -5.8571690320968628e-01 3.3412531018257141e-02</leafValues></_>
        <_>
          <internalNodes>
            0 -1 10 1.5887429937720299e-02</internalNodes>
          <leafValues>
            2.1200506016612053e-02 -7.5741505622863770e-01</leafValues></_>
        <_>
          <internalNodes>
            0 -1 639 1.9134256988763809e-02</internalNodes>
          <leafValues>
            1.4551674015820026e-02 -9.2374032735824585e-01</leafValues></_>
        <_>
          <internalNodes>
            0 -1 351 1.6699605621397495e-03</internalNodes>
          <leafValues>
            -1.2928062677383423e-01 1.4710149168968201e-01</leafValues></_>
        <_>
          <internalNodes>
            0 -1 432 1.9736085087060928e-03</internalNodes>
          <leafValues>
            -7.2769120335578918e-02 2.8321668505668640e-01</leafValues></_>
        <_>
          <internalNodes>
            0 -1 507 2.8088316321372986e-04</internalNodes>
          <leafValues>
            1.0624775290489197e-01 -1.9447088241577148e-01</leafValues></_>
        <_>
          <internalNodes>
            0 -1 604 4.7401841729879379e-03</internalNodes>
          <leafValues>
            3.7683624774217606e-02 -5.0459963083267212e-01</leafValues></_>
        <_>
          <internalNodes>
            0 -1 29 -2.6384373195469379e-03</internalNodes>
          <leafValues>
            2.4738149344921112e-01 -8.4357924759387970e-02</leafValues></_>
        <_>
          <internalNodes>
            0 -1 95 -1.1419584974646568e-02</internalNodes>
          <leafValues>
            -4.8723864555358887e-01 4.0405973792076111e-02</leafValues></_>
        <_>
          <internalNodes>
            0 -1 173 1.4646457275375724e-03</internalNodes>
          <leafValues>
            2.2905819118022919e-02 -7.6094430685043335e-01</leafValues></_></weakClassifiers></_>
    <!-- stage 9 -->
    <_>
      <maxWeakCount>65</maxWeakCount>
      <stageThreshold>-1.3608548641204834e+00</stageThreshold>
      <weakClassifiers>
        <_>
          <internalNodes>
            0 -1 9 6.0883738100528717e-02</internalNodes>
          <leafValues>
            -6.0414129495620728e-01 -3.4538879990577698e-01</leafValues></_>
        <_>
          <internalNodes>
            0 -1 669 -1.3248289003968239e-02</internalNodes>
          <leafValues>
            5.4314617067575455e-02 -3.2085245847702026e-01</leafValues></_>
        <_>
          <internalNodes>
            0 -1 61 4.1963411495089531e-03</internalNodes>
          <leafValues>
            -2.2198832035064697e-01 9.4582125544548035e-02</leafValues></_>
        <_>
          <internalNodes>
            0 -1 710 2.3653060197830200e-02</internalNodes>
          <leafValues>
            -8.3421118557453156e-02 2.2220768034458160e-01</leafValues></_>
        <_>
          <internalNodes>
            0 -1 680 1.3939978554844856e-02</internalNodes>
          <leafValues>
            -5.0562236458063126e-02 4.7560524940490723e-01</leafValues></_>
        <_>
          <internalNodes>
            0 -1 387 -1.2709933798760176e-03</internalNodes>
          <leafValues>
            -2.9320660233497620e-01 6.7336708307266235e-02</leafValues></_>
        <_>
          <internalNodes>
            0 -1 386 9.1727171093225479e-04</internalNodes>
          <leafValues>
            9.6015669405460358e-02 -2.4500583112239838e-01</leafValues></_>
        <_>
          <internalNodes>
            0 -1 638 -1.4032687991857529e-02</internalNodes>
          <leafValues>
            -8.7637013196945190e-01 1.7801603302359581e-02</leafValues></_>
        <_>
          <internalNodes>
            0 -1 90 7.3412689380347729e-03</internalNodes>
          <leafValues>
            -1.5031211078166962e-01 1.2291913479566574e-01</leafValues></_>
        <_>
          <internalNodes>
            0 -1 368 1.4081624336540699e-02</internalNodes>
          <leafValues>
            -7.5780570507049561e-02 2.5292858481407166e-01</leafValues></_>
        <_>
          <internalNodes>
            0 -1 41 -9.5223188400268555e-03</internalNodes>
          <leafValues>
            3.0228859186172485e-01 -6.0224916785955429e-02</leafValues></_>
        <_>
          <internalNodes>
            0 -1 445 1.2064094189554453e-03</internalNodes>
          <leafValues>
            7.7207341790199280e-02 -2.4378399550914764e-01</leafValues></_>
        <_>
          <internalNodes>
            0 -1 88 -1.2794679030776024e-02</internalNodes>
          <leafValues>
            6.2296575307846069e-01 -3.2455708831548691e-02</leafValues></_>
        <_>
          <internalNodes>
            0 -1 157 4.8836683854460716e-03</internalNodes>
          <leafValues>
            3.2494720071554184e-02 -6.2228983640670776e-01</leafValues></_>
        <_>
          <internalNodes>
            0 -1 551 3.4485477954149246e-03</internalNodes>
          <leafValues>
            3.2028455287218094e-02 -4.7933980822563171e-01</leafValues></_>
        <_>
          <internalNodes>
            0 -1 438 1.9080399069935083e-03</internalNodes>
          <leafValues>
            -1.0639724880456924e-01 2.0153036713600159e-01</leafValues></_>
        <_>
          <internalNodes>
            0 -1 739 -5.3904452361166477e-03</internalNodes>
          <leafValues>
            1.6597333550453186e-01 -1.1474926769733429e-01</leafValues></_>
        <_>
          <internalNodes>
            0 -1 311 1.3583436608314514e-02</internalNodes>
          <leafValues>
            -7.2298325598239899e-02 2.8081786632537842e-01</leafValues></_>
        <_>
          <internalNodes>
            0 -1 559 -7.3536761105060577e-02</internalNodes>
          <leafValues>
            3.9812588691711426e-01 -4.9058925360441208e-02</leafValues></_>
        <_>
          <internalNodes>
            0 -1 483 -2.1672758739441633e-03</internalNodes>
          <leafValues>
            3.1832462549209595e-01 -5.7798407971858978e-02</leafValues></_>
        <_>
          <internalNodes>
            0 -1 364 4.2411107569932938e-03</internalNodes>
          <leafValues>
            2.1231669932603836e-02 -7.9378283023834229e-01</leafValues></_>
        <_>
          <internalNodes>
            0 -1 707 -8.5116736590862274e-04</internalNodes>
          <leafValues>
            -2.9243084788322449e-01 5.2902385592460632e-02</leafValues></_>
        <_>
          <internalNodes>
            0 -1 685 1.1972124921157956e-03</internalNodes>
          <leafValues>
            -8.9159227907657623e-02 1.7795385420322418e-01</leafValues></_>
        <_>
          <internalNodes>
            0 -1 468 -2.6092487387359142e-03</internalNodes>
          <leafValues>
            -6.2064313888549805e-01 2.7096301317214966e-02</leafValues></_>
        <_>
          <internalNodes>
            0 -1 528 1.3188509910833091e-05</internalNodes>
          <leafValues>
            -1.2934549152851105e-01 1.3457496464252472e-01</leafValues></_>
        <_>
          <internalNodes>
            0 -1 679 -4.3607540428638458e-03</internalNodes>
          <leafValues>
            -8.1875354051589966e-01 1.8494835123419762e-02</leafValues></_>
        <_>
          <internalNodes>
            0 -1 588 1.1535612866282463e-03</internalNodes>
          <leafValues>
            1.0276371985673904e-01 -1.5904153883457184e-01</leafValues></_>
        <_>
          <internalNodes>
            0 -1 585 3.2000248320400715e-03</internalNodes>
          <leafValues>
            -4.7112733125686646e-02 3.6071944236755371e-01</leafValues></_>
        <_>
          <internalNodes>
            0 -1 441 -2.7736619114875793e-02</internalNodes>
          <leafValues>
            -4.9617102742195129e-01 3.6054048687219620e-02</leafValues></_>
        <_>
          <internalNodes>
            0 -1 418 -6.6115283407270908e-03</internalNodes>
          <leafValues>
            2.9593694210052490e-01 -6.5007805824279785e-02</leafValues></_>
        <_>
          <internalNodes>
            0 -1 365 1.6820894088596106e-03</internalNodes>
          <leafValues>
            3.0361065641045570e-02 -5.1975309848785400e-01</leafValues></_>
        <_>
          <internalNodes>
            0 -1 85 -3.6702752113342285e-03</internalNodes>
          <leafValues>
            1.2893030047416687e-01 -1.3296468555927277e-01</leafValues></_>
        <_>
          <internalNodes>
            0 -1 683 6.8457406014204025e-03</internalNodes>
          <leafValues>
            -7.1895889937877655e-02 2.4661864340305328e-01</leafValues></_>
        <_>
          <internalNodes>
            0 -1 252 3.1596580520272255e-03</internalNodes>
          <leafValues>
            4.9133881926536560e-02 -3.6154294013977051e-01</leafValues></_>
        <_>
          <internalNodes>
            0 -1 678 1.3358827345655300e-05</internalNodes>
          <leafValues>
            -1.4821286499500275e-01 1.2883184850215912e-01</leafValues></_>
        <_>
          <internalNodes>
            0 -1 700 -1.5777528285980225e-02</internalNodes>
          <leafValues>
            4.8434105515480042e-01 -3.6062825471162796e-02</leafValues></_>
        <_>
          <internalNodes>
            0 -1 146 1.8289165571331978e-02</internalNodes>
          <leafValues>
            -5.2736166864633560e-02 3.1815034151077271e-01</leafValues></_>
        <_>
          <internalNodes>
            0 -1 688 -2.2459900937974453e-03</internalNodes>
          <leafValues>
            -4.8770087957382202e-01 3.9564225822687149e-02</leafValues></_>
        <_>
          <internalNodes>
            0 -1 124 -1.4267574995756149e-02</internalNodes>
          <leafValues>
            2.1944572031497955e-01 -7.9878553748130798e-02</leafValues></_>
        <_>
          <internalNodes>
            0 -1 134 -3.2957373186945915e-03</internalNodes>
          <leafValues>
            -4.5041421055793762e-01 3.7093497812747955e-02</leafValues></_>
        <_>
          <internalNodes>
            0 -1 69 2.4081408046185970e-03</internalNodes>
          <leafValues>
            -4.2690172791481018e-02 4.4024243950843811e-01</leafValues></_>
        <_>
          <internalNodes>
            0 -1 548 1.9772173836827278e-03</internalNodes>
          <leafValues>
            -2.3022235929965973e-01 8.2828648388385773e-02</leafValues></_>
        <_>
          <internalNodes>
            0 -1 465 1.9970564171671867e-02</internalNodes>
          <leafValues>
            -3.3712394535541534e-02 5.1935178041458130e-01</leafValues></_>
        <_>
          <internalNodes>
            0 -1 38 1.7216393724083900e-02</internalNodes>
          <leafValues>
            -3.1470064073801041e-02 5.1845282316207886e-01</leafValues></_>
        <_>
          <internalNodes>
            0 -1 681 -4.2918950202874839e-04</internalNodes>
          <leafValues>
            1.4496180415153503e-01 -1.2844036519527435e-01</leafValues></_>
        <_>
          <internalNodes>
            0 -1 408 1.6324106836691499e-03</internalNodes>
          <leafValues>
            5.1223170012235641e-02 -3.5245138406753540e-01</leafValues></_>
        <_>
          <internalNodes>
            0 -1 606 1.2260063085705042e-03</internalNodes>
          <leafValues>
            7.4077107012271881e-02 -2.5370478630065918e-01</leafValues></_>
        <_>
          <internalNodes>
            0 -1 189 -1.0687403846532106e-03</internalNodes>
          <leafValues>
            -2.4120205640792847e-01 6.8112567067146301e-02</leafValues></_>
        <_>
          <internalNodes>
            0 -1 136 -9.5600647910032421e-05</internalNodes>
          <leafValues>
            1.1627665162086487e-01 -1.7536884546279907e-01</leafValues></_>
        <_>
          <internalNodes>
            0 -1 532 1.6544235870242119e-02</internalNodes>
          <leafValues>
            -7.2440415620803833e-02 2.4786520004272461e-01</leafValues></_>
        <_>
          <internalNodes>
            0 -1 271 1.8811166519299150e-03</internalNodes>
          <leafValues>
            -8.1768661737442017e-02 2.1484012901782990e-01</leafValues></_>
        <_>
          <internalNodes>
            0 -1 118 6.5165078267455101e-03</internalNodes>
          <leafValues>
            -1.0698916763067245e-01 1.7132753133773804e-01</leafValues></_>
        <_>
          <internalNodes>
            0 -1 64 -9.5796938985586166e-03</internalNodes>
          <leafValues>
            -5.4110872745513916e-01 3.4828957170248032e-02</leafValues></_>
        <_>
          <internalNodes>
            0 -1 220 -1.2683043256402016e-02</internalNodes>
          <leafValues>
            3.3668759465217590e-01 -5.9940796345472336e-02</leafValues></_>
        <_>
          <internalNodes>
            0 -1 567 -2.3998087272047997e-03</internalNodes>
          <leafValues>
            -3.8789874315261841e-01 5.1778137683868408e-02</leafValues></_>
        <_>
          <internalNodes>
            0 -1 492 -1.2914314866065979e-02</internalNodes>
          <leafValues>
            -4.2620226740837097e-01 3.8856640458106995e-02</leafValues></_>
        <_>
          <internalNodes>
            0 -1 430 1.6899339854717255e-02</internalNodes>
          <leafValues>
            -5.7397749274969101e-02 3.4040042757987976e-01</leafValues></_>
        <_>
          <internalNodes>
            0 -1 142 -1.3461469672620296e-02</internalNodes>
          <leafValues>
            5.7770144939422607e-01 -3.4641545265913010e-02</leafValues></_>
        <_>
          <internalNodes>
            0 -1 490 5.1319748163223267e-02</internalNodes>
          <leafValues>
            3.1148038804531097e-02 -7.6972055435180664e-01</leafValues></_>
        <_>
          <internalNodes>
            0 -1 741 -2.2874646820127964e-03</internalNodes>
          <leafValues>
            1.4655148983001709e-01 -1.4540843665599823e-01</leafValues></_>
        <_>
          <internalNodes>
            0 -1 186 3.6561675369739532e-03</internalNodes>
          <leafValues>
            -5.8080673217773438e-02 3.6236092448234558e-01</leafValues></_>
        <_>
          <internalNodes>
            0 -1 177 1.7943393904715776e-03</internalNodes>
          <leafValues>
            4.3002467602491379e-02 -4.6949404478073120e-01</leafValues></_>
        <_>
          <internalNodes>
            0 -1 325 1.5397646930068731e-03</internalNodes>
          <leafValues>
            1.8771411851048470e-02 -8.3568465709686279e-01</leafValues></_>
        <_>
          <internalNodes>
            0 -1 675 4.5465864241123199e-03</internalNodes>
          <leafValues>
            -4.2980741709470749e-02 5.5514001846313477e-01</leafValues></_>
        <_>
          <internalNodes>
            0 -1 402 4.3018959462642670e-02</internalNodes>
          <leafValues>
            3.5386357456445694e-02 -5.6310003995895386e-01</leafValues></_></weakClassifiers></_>
    <!-- stage 10 -->
    <_>
      <maxWeakCount>55</maxWeakCount>
      <stageThreshold>-1.1824777126312256e+00</stageThreshold>
      <weakClassifiers>
        <_>
          <internalNodes>
            0 -1 161 1.3687419705092907e-03</internalNodes>
          <leafValues>
            -6.5042370557785034e-01 -4.2128601670265198e-01</leafValues></_>
        <_>
          <internalNodes>
            0 -1 112 8.1123039126396179e-03</internalNodes>
          <leafValues>
            -1.7028923332691193e-01 1.1467483639717102e-01</leafValues></_>
        <_>
          <internalNodes>
            0 -1 235 9.9299373105168343e-03</internalNodes>
          <leafValues>
            -4.1810516268014908e-02 3.6601257324218750e-01</leafValues></_>
        <_>
          <internalNodes>
            0 -1 694 6.5823063254356384e-02</internalNodes>
          <leafValues>
            -6.6580191254615784e-02 2.3492935299873352e-01</leafValues></_>
        <_>
          <internalNodes>
            0 -1 697 1.4909349847584963e-03</internalNodes>
          <leafValues>
            2.9131438583135605e-02 -5.9795439243316650e-01</leafValues></_>
        <_>
          <internalNodes>
            0 -1 83 -4.1538517689332366e-04</internalNodes>
          <leafValues>
            1.0543096065521240e-01 -1.5669555962085724e-01</leafValues></_>
        <_>
          <internalNodes>
            0 -1 611 -3.8457554765045643e-03</internalNodes>
          <leafValues>
            2.1526229381561279e-01 -5.6272149085998535e-02</leafValues></_>
        <_>
          <internalNodes>
            0 -1 578 1.9788136705756187e-04</internalNodes>
          <leafValues>
            -1.0326623171567917e-01 1.6469949483871460e-01</leafValues></_>
        <_>
          <internalNodes>
            0 -1 221 1.0563330724835396e-02</internalNodes>
          <leafValues>
            -9.2701740562915802e-02 1.7239722609519958e-01</leafValues></_>
        <_>
          <internalNodes>
            0 -1 495 2.5737978518009186e-02</internalNodes>
          <leafValues>
            -1.4708782732486725e-01 1.5169782936573029e-01</leafValues></_>
        <_>
          <internalNodes>
            0 -1 504 8.9866053313016891e-03</internalNodes>
          <leafValues>
            -6.3289277255535126e-02 3.0989974737167358e-01</leafValues></_>
        <_>
          <internalNodes>
            0 -1 232 -5.6746095418930054e-02</internalNodes>
          <leafValues>
            -5.2604293823242188e-01 4.5964457094669342e-02</leafValues></_>
        <_>
          <internalNodes>
            0 -1 455 2.1414093207567930e-03</internalNodes>
          <leafValues>
            -7.5093157589435577e-02 2.4993290007114410e-01</leafValues></_>
        <_>
          <internalNodes>
            0 -1 454 -7.8320018947124481e-03</internalNodes>
          <leafValues>
            2.6696434617042542e-01 -6.8052954971790314e-02</leafValues></_>
        <_>
          <internalNodes>
            0 -1 505 1.1713013052940369e-02</internalNodes>
          <leafValues>
            8.2557998597621918e-02 -2.2909875214099884e-01</leafValues></_>
        <_>
          <internalNodes>
            0 -1 201 1.7606428265571594e-01</internalNodes>
          <leafValues>
            -1.1845034360885620e-01 1.7172238230705261e-01</leafValues></_>
        <_>
          <internalNodes>
            0 -1 254 2.8155297040939331e-03</internalNodes>
          <leafValues>
            6.6477015614509583e-02 -2.8653582930564880e-01</leafValues></_>
        <_>
          <internalNodes>
            0 -1 45 9.1446470469236374e-03</internalNodes>
          <leafValues>
            2.9072083532810211e-02 -5.5992275476455688e-01</leafValues></_>
        <_>
          <internalNodes>
            0 -1 475 -3.4974256996065378e-03</internalNodes>
          <leafValues>
            -3.2114288210868835e-01 4.6939652413129807e-02</leafValues></_>
        <_>
          <internalNodes>
            0 -1 429 -4.7995876520872116e-03</internalNodes>
          <leafValues>
            5.8946740627288818e-01 -2.8951840475201607e-02</leafValues></_>
        <_>
          <internalNodes>
            0 -1 237 3.6049811169505119e-03</internalNodes>
          <leafValues>
            7.0693477988243103e-02 -2.2052143514156342e-01</leafValues></_>
        <_>
          <internalNodes>
            0 -1 227 -2.2029418032616377e-03</internalNodes>
          <leafValues>
            -5.3023785352706909e-01 2.8623033314943314e-02</leafValues></_>
        <_>
          <internalNodes>
            0 -1 523 6.5394658595323563e-03</internalNodes>
          <leafValues>
            -4.0842946618795395e-02 4.4701492786407471e-01</leafValues></_>
        <_>
          <internalNodes>
            0 -1 743 -1.2939660809934139e-03</internalNodes>
          <leafValues>
            -4.0783214569091797e-01 4.1871402412652969e-02</leafValues></_>
        <_>
          <internalNodes>
            0 -1 248 -5.9932917356491089e-03</internalNodes>
          <leafValues>
            -5.4926925897598267e-01 2.8548665344715118e-02</leafValues></_>
        <_>
          <internalNodes>
            0 -1 150 -1.4435207471251488e-02</internalNodes>
          <leafValues>
            4.2670419812202454e-01 -4.1827838867902756e-02</leafValues></_>
        <_>
          <internalNodes>
            0 -1 154 3.9536426775157452e-03</internalNodes>
          <leafValues>
            -1.1107908189296722e-01 1.6918182373046875e-01</leafValues></_>
        <_>
          <internalNodes>
            0 -1 284 -1.2444589287042618e-02</internalNodes>
          <leafValues>
            -6.3776385784149170e-01 2.5099832564592361e-02</leafValues></_>
        <_>
          <internalNodes>
            0 -1 586 -2.7078926563262939e-02</internalNodes>
          <leafValues>
            -9.5720553398132324e-01 1.2372751720249653e-02</leafValues></_>
        <_>
          <internalNodes>
            0 -1 501 1.4045985415577888e-02</internalNodes>
          <leafValues>
            -3.6846544593572617e-02 5.2074044942855835e-01</leafValues></_>
        <_>
          <internalNodes>
            0 -1 19 -6.4295053482055664e-02</internalNodes>
          <leafValues>
            -8.2984280586242676e-01 2.2146729752421379e-02</leafValues></_>
        <_>
          <internalNodes>
            0 -1 147 1.8979743123054504e-01</internalNodes>
          <leafValues>
            4.3569266796112061e-02 -3.4998866915702820e-01</leafValues></_>
        <_>
          <internalNodes>
            0 -1 187 -1.3531425502151251e-03</internalNodes>
          <leafValues>
            -3.6149993538856506e-01 4.4317685067653656e-02</leafValues></_>
        <_>
          <internalNodes>
            0 -1 744 -3.2058390206657350e-04</internalNodes>
          <leafValues>
            1.8820229172706604e-01 -8.5186779499053955e-02</leafValues></_>
        <_>
          <internalNodes>
            0 -1 531 9.9229905754327774e-03</internalNodes>
          <leafValues>
            6.6116712987422943e-02 -2.7903553843498230e-01</leafValues></_>
        <_>
          <internalNodes>
            0 -1 615 9.7609736258164048e-04</internalNodes>
          <leafValues>
            -7.9791359603404999e-02 2.1888867020606995e-01</leafValues></_>
        <_>
          <internalNodes>
            0 -1 598 -6.0496353544294834e-03</internalNodes>
          <leafValues>
            2.2472232580184937e-01 -7.7571116387844086e-02</leafValues></_>
        <_>
          <internalNodes>
            0 -1 663 -9.4814202748239040e-04</internalNodes>
          <leafValues>
            -2.6665797829627991e-01 6.5829373896121979e-02</leafValues></_>
        <_>
          <internalNodes>
            0 -1 179 -5.3494895109906793e-04</internalNodes>
          <leafValues>
            1.7192091047763824e-01 -1.0172624886035919e-01</leafValues></_>
        <_>
          <internalNodes>
            0 -1 302 3.3413551747798920e-02</internalNodes>
          <leafValues>
            5.9183128178119659e-02 -3.1207507848739624e-01</leafValues></_>
        <_>
          <internalNodes>
            0 -1 331 -3.3171460032463074e-02</internalNodes>
          <leafValues>
            -3.0624890327453613e-01 5.7709213346242905e-02</leafValues></_>
        <_>
          <internalNodes>
            0 -1 624 2.4284463375806808e-02</internalNodes>
          <leafValues>
            -2.4017974734306335e-02 7.7992343902587891e-01</leafValues></_>
        <_>
          <internalNodes>
            0 -1 396 4.0530250407755375e-03</internalNodes>
          <leafValues>
            -8.9882440865039825e-02 1.9645632803440094e-01</leafValues></_>
        <_>
          <internalNodes>
            0 -1 451 4.0356628596782684e-04</internalNodes>
          <leafValues>
            -1.3858738541603088e-01 1.2549984455108643e-01</leafValues></_>
        <_>
          <internalNodes>
            0 -1 246 -3.4389894455671310e-02</internalNodes>
          <leafValues>
            2.9669758677482605e-01 -5.4029703140258789e-02</leafValues></_>
        <_>
          <internalNodes>
            0 -1 727 -3.1166353437583894e-05</internalNodes>
          <leafValues>
            1.2114895135164261e-01 -1.3787354528903961e-01</leafValues></_>
        <_>
          <internalNodes>
            0 -1 530 -3.9167334325611591e-03</internalNodes>
          <leafValues>
            -3.6097231507301331e-01 5.0203002989292145e-02</leafValues></_>
        <_>
          <internalNodes>
            0 -1 711 -1.6405535861849785e-03</internalNodes>
          <leafValues>
            -4.4833526015281677e-01 3.3953718841075897e-02</leafValues></_>
        <_>
          <internalNodes>
            0 -1 391 1.1634040623903275e-02</internalNodes>
          <leafValues>
            -4.5616455376148224e-02 4.1760137677192688e-01</leafValues></_>
        <_>
          <internalNodes>
            0 -1 427 1.4846264384686947e-03</internalNodes>
          <leafValues>
            5.8235783129930496e-02 -2.8548267483711243e-01</leafValues></_>
        <_>
          <internalNodes>
            0 -1 327 -4.7951322048902512e-02</internalNodes>
          <leafValues>
            4.8205041885375977e-01 -3.5913925617933273e-02</leafValues></_>
        <_>
          <internalNodes>
            0 -1 129 -1.8098100554198027e-03</internalNodes>
          <leafValues>
            -3.5418781638145447e-01 4.9244988709688187e-02</leafValues></_>
        <_>
          <internalNodes>
            0 -1 59 -2.3092910123523325e-04</internalNodes>
          <leafValues>
            -2.5571209192276001e-01 6.0584452003240585e-02</leafValues></_>
        <_>
          <internalNodes>
            0 -1 374 -4.7222692519426346e-03</internalNodes>
          <leafValues>
            1.8227659165859222e-01 -9.8231777548789978e-02</leafValues></_>
        <_>
          <internalNodes>
            0 -1 319 -5.6893359869718552e-02</internalNodes>
          <leafValues>
            -7.1246528625488281e-01 2.4190861731767654e-02</leafValues></_></weakClassifiers></_>
    <!-- stage 11 -->
    <_>
      <maxWeakCount>59</maxWeakCount>
      <stageThreshold>-1.1349148750305176e+00</stageThreshold>
      <weakClassifiers>
        <_>
          <internalNodes>
            0 -1 725 -2.3384194355458021e-03</internalNodes>
          <leafValues>
            -3.4018850326538086e-01 -5.6389892101287842e-01</leafValues></_>
        <_>
          <internalNodes>
            0 -1 131 2.7019404806196690e-03</internalNodes>
          <leafValues>
            -1.7831687629222870e-01 1.0917782038450241e-01</leafValues></_>
        <_>
          <internalNodes>
            0 -1 564 5.7407317217439413e-04</internalNodes>
          <leafValues>
            8.5627689957618713e-02 -1.8169116973876953e-01</leafValues></_>
        <_>
          <internalNodes>
            0 -1 709 3.4243755042552948e-02</internalNodes>
          <leafValues>
            -3.1212564557790756e-02 2.6197072863578796e-01</leafValues></_>
        <_>
          <internalNodes>
            0 -1 503 1.4898635447025299e-02</internalNodes>
          <leafValues>
            -6.5671578049659729e-02 3.1296882033348083e-01</leafValues></_>
        <_>
          <internalNodes>
            0 -1 197 5.1557146012783051e-02</internalNodes>
          <leafValues>
            -6.8756192922592163e-02 2.5221031904220581e-01</leafValues></_>
        <_>
          <internalNodes>
            0 -1 689 -3.4542428329586983e-03</internalNodes>
          <leafValues>
            1.7721350491046906e-01 -8.6778365075588226e-02</leafValues></_>
        <_>
          <internalNodes>
            0 -1 692 2.2995717823505402e-02</internalNodes>
          <leafValues>
            1.1540518142282963e-02 -6.2754184007644653e-01</leafValues></_>
        <_>
          <internalNodes>
            0 -1 745 -4.2462456040084362e-03</internalNodes>
          <leafValues>
            4.3027114868164063e-01 -2.8884314000606537e-02</leafValues></_>
        <_>
          <internalNodes>
            0 -1 649 -5.4759271442890167e-03</internalNodes>
          <leafValues>
            -8.7721335887908936e-01 1.2765712104737759e-02</leafValues></_>
        <_>
          <internalNodes>
            0 -1 54 -9.6056284382939339e-03</internalNodes>
          <leafValues>
            2.4300563335418701e-01 -5.8955453336238861e-02</leafValues></_>
        <_>
          <internalNodes>
            0 -1 176 -2.1883710287511349e-03</internalNodes>
          <leafValues>
            -4.4002434611320496e-01 2.7669982984662056e-02</leafValues></_>
        <_>
          <internalNodes>
            0 -1 394 2.9505871236324310e-02</internalNodes>
          <leafValues>
            -5.4985146969556808e-02 2.6412570476531982e-01</leafValues></_>
        <_>
          <internalNodes>
            0 -1 49 -3.4529576078057289e-03</internalNodes>
          <leafValues>
            3.0248433351516724e-01 -4.9095056951045990e-02</leafValues></_>
        <_>
          <internalNodes>
            0 -1 304 3.7086165975779295e-03</internalNodes>
          <leafValues>
            4.1089899837970734e-02 -3.9286589622497559e-01</leafValues></_>
        <_>
          <internalNodes>
            0 -1 259 -5.0771636888384819e-03</internalNodes>
          <leafValues>
            6.2789624929428101e-01 -3.2606251537799835e-02</leafValues></_>
        <_>
          <internalNodes>
            0 -1 379 -1.7832804587669671e-04</internalNodes>
          <leafValues>
            1.4776243269443512e-01 -1.1365853995084763e-01</leafValues></_>
        <_>
          <internalNodes>
            0 -1 716 -4.4391183182597160e-03</internalNodes>
          <leafValues>
            -7.1458286046981812e-01 2.8267411515116692e-02</leafValues></_>
        <_>
          <internalNodes>
            0 -1 234 -4.4983853586018085e-03</internalNodes>
          <leafValues>
            4.2725384235382080e-01 -4.4433832168579102e-02</leafValues></_>
        <_>
          <internalNodes>
            0 -1 462 -3.7887822836637497e-03</internalNodes>
          <leafValues>
            -3.8538324832916260e-01 4.5736800879240036e-02</leafValues></_>
        <_>
          <internalNodes>
            0 -1 496 -1.6688664909452200e-03</internalNodes>
          <leafValues>
            -4.9603739380836487e-01 2.8700182214379311e-02</leafValues></_>
        <_>
          <internalNodes>
            0 -1 92 1.0514899156987667e-02</internalNodes>
          <leafValues>
            -1.0377332568168640e-01 1.6589473187923431e-01</leafValues></_>
        <_>
          <internalNodes>
            0 -1 370 1.7822187393903732e-02</internalNodes>
          <leafValues>
            -4.6436849981546402e-02 3.6396524310112000e-01</leafValues></_>
        <_>
          <internalNodes>
            0 -1 498 2.8768097981810570e-03</internalNodes>
          <leafValues>
            -1.8975423276424408e-01 9.5894448459148407e-02</leafValues></_>
        <_>
          <internalNodes>
            0 -1 215 -4.6444139443337917e-03</internalNodes>
          <leafValues>
            5.2389913797378540e-01 -3.2786507159471512e-02</leafValues></_>
        <_>
          <internalNodes>
            0 -1 686 -1.8189426045864820e-03</internalNodes>
          <leafValues>
            1.8696250021457672e-01 -8.3368204534053802e-02</leafValues></_>
        <_>
          <internalNodes>
            0 -1 216 3.2245792681351304e-04</internalNodes>
          <leafValues>
            9.2920377850532532e-02 -1.9040007889270782e-01</leafValues></_>
        <_>
          <internalNodes>
            0 -1 281 1.0528791695833206e-02</internalNodes>
          <leafValues>
            2.2938437759876251e-02 -6.8256622552871704e-01</leafValues></_>
        <_>
          <internalNodes>
            0 -1 698 9.3360925093293190e-03</internalNodes>
          <leafValues>
            -5.2053034305572510e-02 3.4436854720115662e-01</leafValues></_>
        <_>
          <internalNodes>
            0 -1 376 1.3457207381725311e-01</internalNodes>
          <leafValues>
            4.4158130884170532e-02 -3.9304438233375549e-01</leafValues></_>
        <_>
          <internalNodes>
            0 -1 345 8.3099193871021271e-02</internalNodes>
          <leafValues>
            -2.5551939383149147e-02 7.4564558267593384e-01</leafValues></_>
        <_>
          <internalNodes>
            0 -1 647 1.3879622332751751e-02</internalNodes>
          <leafValues>
            -2.5134082883596420e-02 5.7205057144165039e-01</leafValues></_>
        <_>
          <internalNodes>
            0 -1 581 2.1556788124144077e-04</internalNodes>
          <leafValues>
            9.1089449822902679e-02 -1.9164092838764191e-01</leafValues></_>
        <_>
          <internalNodes>
            0 -1 378 -1.4328360557556152e-03</internalNodes>
          <leafValues>
            1.8983362615108490e-01 -8.2843810319900513e-02</leafValues></_>
        <_>
          <internalNodes>
            0 -1 380 3.4823173191398382e-03</internalNodes>
          <leafValues>
            6.7012660205364227e-02 -2.6108902692794800e-01</leafValues></_>
        <_>
          <internalNodes>
            0 -1 294 -4.6359226107597351e-03</internalNodes>
          <leafValues>
            2.7185699343681335e-01 -6.6362723708152771e-02</leafValues></_>
        <_>
          <internalNodes>
            0 -1 583 -2.6232362724840641e-03</internalNodes>
          <leafValues>
            -4.3565228581428528e-01 3.8568932563066483e-02</leafValues></_>
        <_>
          <internalNodes>
            0 -1 350 6.7419810220599174e-03</internalNodes>
          <leafValues>
            2.0736942067742348e-02 -6.7335718870162964e-01</leafValues></_>
        <_>
          <internalNodes>
            0 -1 261 -1.7407134175300598e-02</internalNodes>
          <leafValues>
            5.9392952919006348e-01 -3.0622893944382668e-02</leafValues></_>
        <_>
          <internalNodes>
            0 -1 344 4.8184877960011363e-04</internalNodes>
          <leafValues>
            -1.8418259918689728e-01 8.9378699660301208e-02</leafValues></_>
        <_>
          <internalNodes>
            0 -1 149 1.5711020678281784e-03</internalNodes>
          <leafValues>
            9.7229234874248505e-02 -2.0946396887302399e-01</leafValues></_>
        <_>
          <internalNodes>
            0 -1 117 1.1081790551543236e-02</internalNodes>
          <leafValues>
            -6.7492723464965820e-02 2.5354021787643433e-01</leafValues></_>
        <_>
          <internalNodes>
            0 -1 562 1.1279061436653137e-02</internalNodes>
          <leafValues>
            -1.7241064459085464e-02 8.7873786687850952e-01</leafValues></_>
        <_>
          <internalNodes>
            0 -1 423 4.2242825031280518e-02</internalNodes>
          <leafValues>
            -1.3166548311710358e-01 1.3322797417640686e-01</leafValues></_>
        <_>
          <internalNodes>
            0 -1 446 1.0921409120783210e-03</internalNodes>
          <leafValues>
            1.0034482181072235e-01 -1.8464744091033936e-01</leafValues></_>
        <_>
          <internalNodes>
            0 -1 314 1.8973763508256525e-04</internalNodes>
          <leafValues>
            -1.1046525090932846e-01 1.7811484634876251e-01</leafValues></_>
        <_>
          <internalNodes>
            0 -1 421 -1.0358535218983889e-03</internalNodes>
          <leafValues>
            -4.6961581707000732e-01 3.8063518702983856e-02</leafValues></_>
        <_>
          <internalNodes>
            0 -1 459 -2.6347767561674118e-04</internalNodes>
          <leafValues>
            1.9325792789459229e-01 -9.2978626489639282e-02</leafValues></_>
        <_>
          <internalNodes>
            0 -1 737 -1.6663025598973036e-03</internalNodes>
          <leafValues>
            -5.4492890834808350e-01 2.9765158891677856e-02</leafValues></_>
        <_>
          <internalNodes>
            0 -1 703 -1.0208662599325180e-02</internalNodes>
          <leafValues>
            -5.2645760774612427e-01 2.7504282072186470e-02</leafValues></_>
        <_>
          <internalNodes>
            0 -1 273 -1.1048784945160151e-03</internalNodes>
          <leafValues>
            -2.0074997842311859e-01 8.2645520567893982e-02</leafValues></_>
        <_>
          <internalNodes>
            0 -1 24 -1.1408241465687752e-02</internalNodes>
          <leafValues>
            3.5238379240036011e-01 -4.8143368214368820e-02</leafValues></_>
        <_>
          <internalNodes>
            0 -1 171 3.3916872926056385e-03</internalNodes>
          <leafValues>
            -8.9148499071598053e-02 1.7676843702793121e-01</leafValues></_>
        <_>
          <internalNodes>
            0 -1 53 -5.6405309587717056e-03</internalNodes>
          <leafValues>
            3.6506816744804382e-01 -4.5963022857904434e-02</leafValues></_>
        <_>
          <internalNodes>
            0 -1 673 1.3437056913971901e-02</internalNodes>
          <leafValues>
            -2.9730722308158875e-02 5.6560027599334717e-01</leafValues></_>
        <_>
          <internalNodes>
            0 -1 705 -3.1810114160180092e-04</internalNodes>
          <leafValues>
            1.2647396326065063e-01 -1.4508989453315735e-01</leafValues></_>
        <_>
          <internalNodes>
            0 -1 280 -1.4994402881711721e-03</internalNodes>
          <leafValues>
            -2.9084464907646179e-01 5.4691933095455170e-02</leafValues></_>
        <_>
          <internalNodes>
            0 -1 222 -2.1551061421632767e-02</internalNodes>
          <leafValues>
            3.5709708929061890e-01 -6.3949875533580780e-02</leafValues></_>
        <_>
          <internalNodes>
            0 -1 156 4.6089431270956993e-03</internalNodes>
          <leafValues>
            9.0795949101448059e-02 -2.0239660143852234e-01</leafValues></_></weakClassifiers></_>
    <!-- stage 12 -->
    <_>
      <maxWeakCount>54</maxWeakCount>
      <stageThreshold>-1.0381455421447754e+00</stageThreshold>
      <weakClassifiers>
        <_>
          <internalNodes>
            0 -1 52 -3.2374879810959101e-04</internalNodes>
          <leafValues>
            -2.0336943864822388e-01 -4.5937737822532654e-01</leafValues></_>
        <_>
          <internalNodes>
            0 -1 736 -3.5882755182683468e-03</internalNodes>
          <leafValues>
            1.4534915983676910e-01 -1.3165771961212158e-01</leafValues></_>
        <_>
          <internalNodes>
            0 -1 324 -1.3567253015935421e-02</internalNodes>
          <leafValues>
            -2.7530601620674133e-01 6.3555121421813965e-02</leafValues></_>
        <_>
          <internalNodes>
            0 -1 269 1.2372359633445740e-02</internalNodes>
          <leafValues>
            1.3696670532226563e-01 -1.6515606641769409e-01</leafValues></_>
        <_>
          <internalNodes>
            0 -1 644 -1.2884872965514660e-02</internalNodes>
          <leafValues>
            4.6290159225463867e-01 -3.8628853857517242e-02</leafValues></_>
        <_>
          <internalNodes>
            0 -1 241 7.9169664531946182e-03</internalNodes>
          <leafValues>
            -6.5489500761032104e-02 2.9691365361213684e-01</leafValues></_>
        <_>
          <internalNodes>
            0 -1 135 -2.0734532881760970e-05</internalNodes>
          <leafValues>
            9.4438880681991577e-02 -1.7787344753742218e-01</leafValues></_>
        <_>
          <internalNodes>
            0 -1 356 -1.2176021933555603e-02</internalNodes>
